{"cost": "CrossEntropyCost", "weights": [[[-0.016676575171981838, -0.0016224502538692055, 0.01172030376780464, -0.005512338933385827, 0.00890427634122243, -0.016682158176302024, -0.003581081591346318, -0.013649467948072843, 0.0024023619685540447, -0.0008549230468054364, 0.012144811989025336, -0.0010150803134650061, -0.0062151739307909366, 0.0004195298573149766, 0.006374916946989933, -0.008017089669354802, -0.0063719746443591675, 0.007705535759445998, -0.002423738778322488, -0.016307291533173094, 0.006825480021957639, -0.0012164287812997414, 0.0006235222328264593, -0.0009597945625276073, 0.007911774729308279, 0.002651901747361994, 0.0008251130333578647, 0.008794519089308856, 0.003938381820368089, 0.003138516664203397, -0.0035656739420015845, -0.009902766165883217, 2.0359201394925147e-05, -0.001326863051941695, -0.017310226267910855, 0.0012131552879755807, -0.006973094747530116, -0.01529422326109121, -0.010311933053030298, -0.027165047437702552, 0.0004149217686559632, -0.006229319243834812, -0.0033463856778678373, -0.007198519457483905, 0.011719164285669496, -3.342335762153704e-06, 0.010717810134590123, 0.0034426933559752407, -0.00662466244727929, 0.006569107592993162, -0.0036692524908598424, -0.003908837062363122, 0.015079340122720055, -0.005948165457953277, 0.004860746043791655, 0.0013301008215836415, -2.7127534415534808e-05, -0.003886464522655737, -0.007631405801438343, 0.004724150276764976, -0.000412876325434537, -0.006620381769901041, -0.061137530070145156, -0.07885798686257764, -0.07422738467151557, -0.08648650894965546, -0.08808127561932735, -0.06574923831294062, -0.07781551006941421, -0.11692824644182936, -0.12241029339404712, -0.08895281117835716, -0.03683323571602879, -0.05147392131817936, -0.032915683456930696, -0.021310027853670938, -0.005587515060099495, -0.006127619645576409, -0.004975319845607068, -0.008567152253624272, 0.007577470551511034, -0.010483131010318468, -0.010257444975427583, -0.009321037275551176, -0.002560340362068487, -0.0036018782836028424, -0.004431572913777687, 0.009184108119127657, -0.012704178501277693, -0.014440340455593533, -0.11006673424034265, -0.1359227209907456, -0.13140984182645393, -0.06681464192498827, -0.12452588374146234, -0.11760719319370323, -0.1790370588824583, -0.2655264203346563, -0.19664039816957146, -0.07553845851432828, 0.024113113119218516, 0.0230791437833956, -0.1824491493541925, -0.1812477228910246, -0.046099997034210194, -0.09007019610491278, -0.049703446079829336, -0.00244269918907103, -0.015056839834456234, 0.006567175287322318, -0.010646430888969438, -0.00197999486757819, 0.004938424259483914, 0.001643188623319144, 0.013065372816598503, -0.007986225093523047, -0.015648241106453145, -0.0702256653689431, -0.12275495252953762, -0.200643710122237, -0.21230738163102228, -0.03964140122571879, -0.0768840610490723, -0.03243087759872797, -0.14079297270798263, -0.031615419824539324, -0.05179707859141654, 0.01993249916678102, -0.02869590616070644, 0.2703184060061503, 0.27940337952842925, 0.09260964756440224, -0.0998219311676935, -0.23806419653747796, -0.13240547454791715, -0.08983444303788071, -0.08323005254629426, -0.03968384866617132, -0.020310547052118537, 0.013579824981462665, -0.014819313826694, -0.015690035745878878, -0.001349913741969988, -0.00016248431039069002, 0.026595681732579944, -0.07202779755736545, -0.13504603780721078, -0.22297683187744535, -0.11639558230444852, -0.10644319119584876, -0.10667977437664083, 0.023870497505230192, -0.03501589266496457, -0.019809763080167884, -0.025468494311560685, 0.0920992557945787, 0.11412252134736385, 0.28303107110619125, 0.3049415201121645, 0.1428500287628762, -0.2677317278447982, -0.1433870506004385, 0.0005867564480505127, -0.14646799619911005, -0.1811552246816772, -0.06272839833095381, -0.028449179263166393, 0.0025308680296996424, -0.0033731768205505384, -0.002424309811743703, 0.0027624496633026994, -0.000480820406776752, -0.001232373355339733, -0.0654044053173066, -0.12746237909956346, -0.1349940490058322, -0.3166106400019642, -0.4626612573448349, -0.18326336250473818, 0.027788900638730258, -0.05139113979620196, -0.025951884409323434, 0.10196248145990015, -0.1083258810566895, 0.037059295250378876, 0.24660815964455934, 0.07134292500230863, 0.02919482347872575, -0.04062031736154853, 0.21105165938895712, 0.20118612901929211, -0.22424637428257968, -0.3227702562291388, -0.1339063890156392, -0.06063684000256333, -0.010717725006588038, -0.001388729636595007, 0.015026302149617556, 0.019984081358974552, 0.00849200749803071, -0.007444105731305217, -0.1760363789871482, -0.10402674369411395, -0.018040391593564256, -0.2940547152212283, -0.1369473400647396, -0.1639217161412279, -0.16940325282166938, -0.1103400904717725, -0.2672176389836178, -0.17997081354587458, 0.05365352536495907, 0.06526971252824806, 0.20916533339617244, 0.2705021757888728, 0.2503605478678874, 0.03793908363408662, 0.28464797273814235, 0.2647092048816572, 0.2592710736790784, -0.14590691913138465, -0.194694048996688, -0.08932971606018639, -0.013387790360553783, -0.0025783463210181366, 0.018574377391329302, -0.002354921054275133, 0.013162550689118624, -0.10144290723881311, -0.21819144023276074, -0.09082897425093499, -0.13940678600548714, -0.06875229317480148, 0.09696389430950539, -0.06910729227171215, -0.21189058942349875, 0.1836556704946907, -0.20938441325964458, 0.13740626058419558, 0.12916797725407486, 0.450150697647088, 0.07382499769700766, 0.3438414999778483, 0.10442725242221078, 0.32664029078860163, 0.04241776504439426, 0.3373431839072681, 0.4068582108660068, -0.15662977222442087, -0.30642277124586237, -0.12058326729058547, -0.0035322142863123567, -0.006070344312760692, 0.05015505267008104, 0.005222338070156764, 0.11906808118699662, -0.0031281703640067353, 0.02369555195187116, 0.13769850401629233, 0.0395045432386219, -0.1219606701083795, 0.14379407193894142, 0.08433329275488467, -0.09753791344759019, -0.0316988310254383, -0.13079041800498156, -0.13951150992951977, 0.15355420203293804, 0.32459425804468334, 0.20388269603212011, 0.31048095058717284, 0.1221645367563521, 0.17057407395146168, -0.09716611477072953, 0.046860953129124895, 0.2654183877373319, 0.05034477885989831, -0.23969938533228555, -0.09887108714348787, -0.00612879459556802, -0.0004730632893612781, 0.04402014613224728, 0.11683470730784988, 0.277306063499156, 0.21941732246254467, 0.2151035068324574, 0.09798336966947431, 0.2530759297381728, 0.07782723475194518, -0.12777136205143722, 0.01356284959958013, 0.0035172877745076347, -0.08013846380446077, -0.13665887435292343, -0.03437462659722271, 0.22920926426314256, 0.016894578233273873, 0.21349970276984112, 0.41892441350620374, 0.3671736083106904, 0.40494513225811446, 0.3028427717342721, 0.17626203696527445, 0.12195631317625179, -0.1265107104336259, -0.15717780962482142, -0.04102626324032023, 0.005232679480054338, 0.0025170805466646954, 0.01933304711414209, 0.21483983657350567, 0.33677215100655855, 0.3363489534203431, 0.02733288793361357, 0.03319559530178576, 0.2505995629349708, 0.007481182075772138, -0.09495873174513138, 0.1799097151299493, 0.010454030623451946, -0.18121663837099206, 0.08327672965120286, -0.05665283851435735, -0.2140702754839571, -0.682716139969788, -0.16069618252886916, 0.19472271447400138, 0.4221277449182276, 0.5088063593576242, 0.5164300914594373, 0.3142054468931421, 0.15665374736660528, 0.055775268678044124, -0.09925658647984374, -0.033323610916380926, -0.00524816277386806, -0.0028240424080500344, 0.02644099749323614, 0.15456359822903867, 0.19562670573239288, 0.1789074235822608, 0.12622127882655898, 0.09036084404861534, 0.10536492048540888, 0.18858680693551388, 0.2341607969344758, 0.3956239196268931, 0.32454016925551943, 0.07418784201479789, -0.09591606464699752, -0.2273102453305601, -0.5323500190271803, -0.4367412841237854, -0.1701016701219846, 0.13454122128794416, 0.18884441507558436, 0.35923827427831095, 0.05979533091006713, 0.4850318441888905, 0.037494775700231624, -0.0033609799078300833, -0.07219613422968438, -0.003953970873882176, 0.0029642659075466674, 0.007039345023609392, 0.04281366349540879, 0.13137210465525417, 0.08994833931747917, 0.013834657215806904, 0.13187260711272764, 0.17671986327794437, 0.12252238631088941, 0.3161239810973992, 0.16615945698256435, 0.39030559558249706, 0.24979720354408821, 0.10632878364614935, -0.2176039054323618, -0.21422818986252512, -0.7864113082566455, -0.49299556592345356, -0.10202151590941752, 0.1360753461933754, -0.13837803210430935, -0.18119641106656081, 0.04425430454183569, 0.38784432202441654, 0.15368862521240215, -0.05611765081675292, -0.0688279216813458, 0.002499041381456578, 0.0001887584568592085, 0.0037379161372675875, 0.020183051124366982, 0.06606387055751985, 0.0886641145876502, -0.19539143848936, 0.1963985410125073, 0.10321627240779878, 0.13373872179514376, 0.16558211114961738, -0.15000136603493588, 0.09620647465219058, 0.10550759449291679, -0.008145064727169273, -0.15923473284854076, -0.3784019214883345, -0.3479172459749064, -0.6617247125887867, -0.12278309939616643, 0.0026427503174548004, -0.17274445197616697, -0.016324304156501383, 0.05653190351993676, 0.40184074469302816, 0.5565824081863184, 0.20721821427130901, -0.06175750466174574, 0.0038463746866177835, -0.008831370579062773, -0.002262551061825984, -0.005252877878298921, 0.011536548692303838, -0.04309206909644156, -0.2523800403483573, 0.14698965692285404, -0.005435185729679491, 0.3008461417902665, -0.07644003910033796, -0.0853667693944073, 0.17665820311444658, -0.19214194301704202, -0.385780235378286, -0.4105722682197923, -0.3612709472060063, 0.021658828018992642, -0.5238199161566909, -0.40528550017512543, -0.03578174871185991, 0.09658822878917683, 0.17889786179623765, 0.15859720131441302, 0.20572549008127333, 0.3966474907767782, 0.1775264998404507, 0.00406261053229839, 0.009884477977691847, 0.012115011979398736, 0.004539461282781151, -0.001412915447825762, 0.0034811898407905747, -0.07470028630276317, -0.028013116349951944, 0.08824393609329821, -0.13359343490405923, 0.1558973439901075, 0.011595596173814997, 0.2113806619320589, 0.22682169133584115, -0.1956957785817909, -0.5489270877038452, -0.49613337046391615, -0.05549624356580106, -0.11427223840716892, -0.47456000607422966, -0.1510648687124137, -0.09512960992950728, -0.024133624834120286, -0.014208511306521685, -0.10520601174494919, -0.0005226144113337396, 0.07013628025912588, 0.024293007798906446, -0.05663379821511937, 0.013126254951793226, 0.007535997521445264, 0.019785053091267178, -0.014519353381017385, -0.011092046537318599, -0.13148913506009194, -0.02827418279851114, 0.18946090340401833, -0.06985233978524959, -0.027833673440420946, -0.09460120590849076, 0.1649308852356375, 0.16705422681264337, -0.19296194093434824, -0.5431902853134875, -0.3464345486367528, 0.008032524012464156, -0.13524536514004815, -0.3099359341622987, -0.00954723569818653, -0.07650837230145631, -0.12402868337140294, -0.15799670516083886, 0.2661697141572049, 0.14148067214556648, 0.09066338033627792, 0.024363626446156014, -0.04691086026277551, 0.004323268551619287, 0.027807106411386937, 0.00035383292475657226, 0.002200970481096701, 0.006870777147976755, -0.2344657539163396, -0.11023624511661395, -0.0757509732973172, -0.34256989734188875, -0.35280502798447844, -0.11643557659916347, 0.18005224993754004, 0.0556513497960813, -0.1488718368534659, -0.7223482510184606, -0.5139808550630742, -0.14995473277034851, -0.24367768233333367, -0.05791218907713563, -0.09605810911669954, -0.02754786098862024, -0.3821113560503952, 0.0540615883138458, 0.12049364051587866, 0.1464210784081214, -0.03305951465794381, -0.05369093940786838, -0.08852461847921046, -0.0002424474771340611, -0.0013446283784503347, -0.005705833585066934, -0.0061803905449458445, 0.055792500364571965, -0.14896755037380258, -0.16515729748957603, -0.1929939755977151, -0.23265024327247702, -0.06171477105108735, 0.1237330545468559, 0.16463175766062202, 0.060963600954534417, -0.21150438269482694, -0.21118474098515966, -0.16190814485614427, -0.23463610105423835, -0.3790516914592106, -0.1267065600946233, 0.030205346724162075, 0.04964965270838549, -0.2270730120699352, -0.024475282321169484, 0.0941890246284999, -0.06341082836740598, -0.20504080484057297, -0.13842262738845623, -0.08297230562929532, 0.00484433468928345, 0.0027167162537415244, -0.00783271526230224, 0.018047995631134003, -0.008400172210337018, -0.11485519295966812, -0.1558076963661536, -0.14308167702314376, -0.197739889959006, 0.05796125725133781, 0.25453102919014503, 0.09548889115340271, 0.09439274276290632, -0.007692858243122647, 0.29620545549839616, 0.009767830909367635, -0.37491221019129484, -0.3356548854945648, -0.3004036297343571, -0.04115104729415812, -0.10147149718671615, -0.10970602724825784, -0.232705864810544, -0.06698909058475107, -0.18719156522218391, -0.3284480693425064, -0.237443108511306, -0.05550130625923347, -0.0026232862211347015, 0.004884260862924684, -0.0076524570793612854, -0.008583473659142454, -0.028531265987363146, -0.09946309166002626, -0.14359267078091792, -0.001275068695946358, 0.1713068781228146, -0.02696589369608305, -0.046520298294092696, 0.03775191365830446, 0.3488318080099745, 0.26716988013515275, 0.15564170973992322, -0.1726731907740947, -0.3221428975799869, 0.035036875907434276, 0.06321841905094962, -0.17744561957142668, -0.14046458835533987, -0.3153733680197676, -0.22304530606965112, -0.08063236898231887, -0.20607342674626605, -0.3147761904206605, -0.16932152308693138, -0.020825020916684384, 0.013186826045929995, -0.006149507458472241, 0.007817137336524338, 0.001797491578623435, -0.013141894767256539, -0.08167344761052249, -0.034232069293143666, 0.053531947126966094, 0.29646042633645353, 0.15778821829995923, 0.2662743825146373, 0.12057785143624203, 0.06787109341211016, -0.12116500515335363, -0.13564962361135735, -0.06905397649352682, -0.10814111508278217, -0.060814528850504763, -0.2522058409297956, -0.0012560310339604596, 0.05542492366702517, -0.2100874976846426, -0.2438734380967453, -0.15307103868382316, -0.1954694073320078, -0.24963918345198452, -0.12897684764105063, 0.015242760311021002, 0.003510833977633768, 0.0006385261043146471, 0.0011894004673852056, -0.01046845637390794, -0.005516584639152676, -0.05108932348019785, 0.07932400952879395, 0.1721549542107086, 0.2585213179713257, 0.2090262876455459, 0.021343738619003762, 0.18114689222595598, 0.3820330132453347, 0.009394350003166506, -0.0898195956510522, -0.384120746775856, -0.18779684586496267, -0.24610892382743976, -0.13163931745257001, 0.19287529773077597, -0.11149352901910724, -0.2727048275072116, -0.4128258603953853, -0.19479993206994706, -0.17024592401327626, -0.14775487785241703, -0.09439255296319356, -0.009093030216215988, -0.010331129775009253, 0.006549915696232648, 0.001720479542507835, -0.003919414087803088, -0.004154954978551806, 0.023918717047332966, 0.11006735312531794, 0.35029945759274417, 0.07757198495428627, -0.14405765486508468, -0.19079382646103205, -0.11726065663083288, 0.13997299797377505, -0.1167092498612035, -0.0190915443281471, -0.12530119576762166, -0.1882566678254046, -0.18972361653465925, -0.12445798513853396, -0.06794261040540406, -0.28065017320378427, -0.23854498387113152, -0.1876242420843321, -0.053147251205030104, -0.0778281531836153, -0.051181130894880446, -0.010010752176762174, 0.0002861658385444051, 0.0035540152835601933, 0.002209792759560555, -0.013266902765769282, 0.007270386765571712, -0.010487264041674786, 0.02904418414517911, 0.09954819277136773, 0.10094166115423178, 0.0604146076379896, 0.01915133886818348, -0.009956781037766994, -0.017325496103391454, -0.04784503287025162, 0.042323369811882346, 0.20655742531360216, 0.07210155138812492, 0.011631570437059239, 0.033621825462437464, 0.09243283195985119, -0.0423510720979589, -0.12748268846382702, 0.05913373982642413, -0.023188598089860776, -0.007965224728033283, -0.01981411381916949, -0.017776151397918785, -0.009964664756179593, 0.012535072128623193, 0.008384198848403173, -0.007127510386252606, 0.00636791465357089, -0.00735650249487038, -0.01804297465000719, -0.004582387314129879, -0.01556097403583864, -0.07176240852542247, -0.058383954099454856, 0.010144956711030531, 0.15001523432033476, 0.16737198398863512, 0.21740480592383482, 0.20005219735849772, 0.1299547979400815, 0.12273858912602455, 0.05055416246343641, 0.18619852435084955, 0.1852390606210758, 0.11852338351772833, 0.04464829853692698, 0.08618104658558269, -0.019862903126160493, 0.008496314077415967, -0.0006608668045201643, -0.012638952521070506, 0.008002133389794316, -0.0045671713216260505, 0.002708700140130911, -0.00060947571457446, -0.009802707064429594, 0.018017687637350423, 0.009508707781681336, -0.006002403999233175, 0.003218452067512661, 0.015979111431231444, 0.01284963533271639, 0.012212563198591098, 0.019015089048556682, 0.022164369581284458, 0.03306913199633562, 0.0072673200510529985, 0.00870760128476712, 0.0208458820435595, 0.02157776909676421, 0.007547902468775382, 0.06267184081050095, 0.038066575532700694, 0.037969181614660535, 0.019082917786776777, 0.0010978123523204652, 0.029534228831713107, 0.0305362811239093, 0.011547873464331553, -0.011012335981576624, -0.011394188629605482, 0.0047691770124920815, 0.004250643350859441], [0.006427022580987559, -0.0029146672509116544, 0.001021407108663383, 0.008999539994921627, -0.005973467514685624, 0.004123618850850797, 0.009772143424620315, 0.004039731161424363, 0.00522462859017761, -0.0024874162680211622, -0.01017045274194422, 0.005452617581884947, -0.0002151323450062357, 0.006774487501906916, 0.003733820299270715, 0.007139030536859581, -0.006141953587602741, 0.009299758883722274, -0.0011939558219864496, 0.013904984800944277, -0.0020168876685125797, -0.002160185596799524, -0.007904128607586441, 0.00232929472957701, -0.002513752363554768, -0.005775996259199386, 0.012534783050625505, 0.006601307953323631, 0.0012053356255084316, 0.007959155916636228, 0.0035785850201176736, -0.013620108691258032, 0.011268625497736145, -0.0004904148825171829, -0.011021680210797124, 0.016494814476447225, 0.0398511860502149, 0.011498232881076842, 0.006291750918160124, -0.0009790448703192827, 0.017236991096377937, 0.009232452961309477, 0.009140939451432887, -0.005904981966592951, -0.005688910045407401, -0.003976268964127422, 0.009313285518079088, 0.004096403503230179, -0.007186170798216838, -0.0009501918875767833, -0.00448811098264773, 0.0008094684195670224, 0.013496875119815578, -0.016442189551261286, -0.00984485552707198, 0.01684727750332802, 0.009438141914689946, -0.006115404704291577, 0.009076957263237763, -0.00828586053963352, -0.0042133972582603955, 0.009036117633292024, 0.01297088929248811, 0.01265868721709218, 0.05058622352536331, 0.05253159905935091, 0.03406053549849052, 0.019700271887557592, 0.08091680004901036, 0.12241001641272455, 0.09540358059200232, 0.02164047658683447, 0.03029531588581589, 0.030509501588827707, -0.021174214894524836, -0.009519604642902767, -0.0048836478020072025, 0.011811857421874789, -0.0011358913038765303, 0.008251094870242988, -0.006144059724048948, 0.010260209752082814, 0.009977593942657856, -0.0015126664246948114, 0.00357380610056441, -0.006463758861405657, 0.0190135728705615, 0.004436473240970271, -0.011109091398844998, -0.008683493035071271, -0.006281417207293441, -0.0009957569361765846, 0.013066829182147546, 0.10565200840994636, 0.0688506121438057, -0.06841932813101953, -0.05114090829048633, 0.10949366871636874, 0.0947212736502303, 0.2519675054804231, 0.13779678229079437, 0.05948847362117459, 0.00020061600422400773, 0.08604861269044613, 0.08985292337959566, 0.04746711635990949, 0.0779357217856594, 0.04402395245803064, 0.006179972667505457, 0.006451042372287154, -0.011182052954251656, 0.0020139097495256576, -0.0046520670722231434, -0.008886062438607832, -0.007772609316249641, -0.010880320890704492, -0.010404850389561734, -0.04311193116623339, -0.043392751563403734, -0.13582084338784517, -0.04321366103997527, 0.14059592348804667, -0.13473085535211077, -0.11768874987105267, 0.02804669239469826, 0.06180884229375888, 0.09775489799201947, 0.04843317286431176, 0.3107889936182769, 0.190467669330006, -0.04643731208109493, 0.009020453667488895, 0.17790562042719935, -0.0545556784899025, 0.002066977468810355, -0.006412688168475176, -0.08260034469797888, -0.0491531852901233, -0.0009071546876970975, 0.016002839390468402, 0.006938747670404034, 0.0007142267005464967, -0.00625230062063605, -0.00473262956043645, -0.07111641177841241, -0.17745454080018289, -0.10307297303826496, -0.1597711051659905, -0.298363451029597, -0.19054992362156037, -0.27715575651346647, -0.09434814552512683, 0.1335963533197735, 0.14512328757873585, 0.28685420074758705, 0.20558309690404772, 0.1761253666276917, 0.2592622385863087, 0.10575507283640717, 0.10774120273175178, 0.0782051006320872, 0.15065726446198627, 0.02991430313284402, -0.21305148268543608, -0.16716365261666802, 0.02339891623082632, 0.07929376820100018, 0.0038596719795640066, 0.002879961425600079, -0.004704153827562759, -0.01258018791992102, -0.023972085769900307, -0.16363887569685612, -0.18989945975174577, 0.004648147049429213, -0.16076560492007708, -0.3585193886269119, -0.11753952207029626, 0.022419464232404564, -0.36316687089117694, 0.12623631005330702, -0.08854503632530274, -0.258017905464945, 0.15368103814654668, -0.21273827677637075, -0.03349106144557394, -0.1915211181720667, -0.08061414296513846, 0.07872511810610712, -0.182798941368874, -0.1486981363798077, 0.07218029672088466, -0.06762009085150636, 0.10757463998416744, -0.017820686222559615, -0.004284804923423467, -0.00396144438223794, 0.0010608867582334244, -0.00935510588341984, -0.03759219635909505, -0.15210651737225497, 0.054023079968618264, -0.040773545968478285, -0.16511085110647575, -0.03621958912569389, -0.09508746109144575, -0.1485622857603898, -0.32741070086448776, -0.03680074821951172, -0.4176782914749052, -0.1344348268653301, 0.39239337520449624, -0.04372398885426134, 0.003276832657546409, 0.11858332780820582, -0.05014040127175912, -0.023702496477845714, 0.13559417020822442, 0.17909880275243, 0.14039481736480616, -0.159917852478591, -0.14261331374089484, -0.016548210826925452, -0.00032426771864230017, -0.012950860196339967, 0.0004689013132895818, -0.02250306592098477, -0.05541367001967831, -0.07084058310454344, -0.06488683575755827, 0.02386440777289262, -0.07579506010608239, -0.07187715386163754, -0.13781018194145114, -0.08828472433888004, -0.014166078934159918, 0.230724566734944, 0.006657799873619095, 0.11744194645614173, -0.06485184103535839, 0.1254055287506873, -0.006646514924244521, -0.233861873433622, 0.09422002106840335, 0.11751410063466154, 0.18705495088033255, 0.007187900670906809, 0.10354008991607358, -0.20142937191985066, -0.17411087528257466, 0.07356895689322773, 0.014029942369051295, 0.0010789185535564657, -0.01005791695006028, -0.005057544473670748, -0.09922710797267904, -0.18493465899348444, -0.05361528556129876, -0.13433845021708668, -0.2424314114831257, 0.08659742059008635, 0.0715176803302392, -0.10738146835352952, -0.003264275123441407, -0.13998251247076485, 0.06766871119159848, -0.19921903757460843, -0.04832597036843536, -0.016943196180193177, -0.11298428674735943, 0.06167001182291971, 0.12872349039827607, -0.12235456336944749, 0.01006070845441939, -0.046214384415739905, 0.1738522520001419, -0.06592600632753504, 0.055494852105095666, 0.10721103947790747, -0.0378913032148971, 0.0018946368337024034, 0.0038822702667696413, -0.02166785055839924, -0.1319782151284626, -0.18075656305310173, 0.06018630952052707, -0.018609588070196206, 0.14719796777104646, -0.061163988610676345, 0.17511820152589455, 0.04977427983672203, -0.12258449355112738, -0.14697027873321067, -0.07088144096320532, -0.023385560821329213, 0.008611816809621205, 0.11512334496138969, 0.027082494476314035, 0.05465067489528772, 0.025431384328959084, -0.07042090170072204, -0.11340571967152782, -0.00025066806439536605, 0.12164355695008347, -0.0918944673686983, -0.1757320534822337, -0.017688978905062144, -0.010530508732692708, -0.0014028052275024756, -0.0024827043078068556, -0.044823601669615104, -0.06511627574422814, -0.13614718460217762, -0.1004873122955752, 0.06309140535147556, -0.010973283577466374, -0.32579808721884784, 0.08895427558243234, 0.07402113022288749, -0.2599114444890285, -0.08992959229355661, 0.29611548109615193, -0.025472279378909397, 0.006281388444636155, 0.021277938172880963, -0.06798041174987357, -0.08119369596001857, 0.09051129681093661, -0.4183660691637549, -0.2160123961413346, -0.10649838679263458, -0.07644480025764291, 0.1637903010024068, -0.033689776318471414, 0.006314138890022628, -0.0052354499000107635, 0.005230823284886209, 0.0062133358235669095, -0.009137676435420178, 0.10161981013115795, -0.0747495024370936, 0.21231290891124152, 0.13296113583865657, -0.1497794064355612, -0.10021274965721887, 0.21486223389076603, -0.17980106242221996, 0.1242327128340301, 0.23540291650985554, -0.21328149337066937, -0.04879388080957645, -0.0712425249195034, -0.05689941344134539, 0.0033153231330843944, -0.07056133840372918, 0.5001163339843138, 0.062374156327271536, -0.08459074891039275, -0.2850128845733546, -0.03809575995558174, 0.17606277781011564, 0.02926753115814418, -0.012809201996654548, -0.004026807477858661, -0.0035640936531870725, 0.0034987686955781304, -0.004054815310315441, 0.07468914446953713, -0.16742677737440712, -0.09478978923209934, 0.02543029150696982, -0.16929257558157768, 0.10020491195983329, 0.11403768980252461, -0.2751763720826669, -0.17202373628283832, -0.4178935365060147, -0.24125590087240348, -0.11252515360927977, -0.1379565129622369, -0.18678693355959858, 0.0462506533690012, 0.03297485721216055, 0.18904031183647202, 0.1369386231695159, -0.16983820970966562, -0.12959277228913454, -0.060920674004856956, 0.09204201224926264, 0.0886160160350674, 0.0011039164736234967, 0.03696415205962844, -0.0017404905327257757, -0.007231510252698386, -0.008093968123259332, 0.018979041091422694, -0.2494434242935224, -0.26351141130595884, -0.3529650122573952, -0.29658373215401634, -0.23169774423989511, -0.33290021138982084, -0.10021608757472013, 0.0487337952508231, -0.408928654073541, -0.1915943852792681, 0.05727842400534391, -0.4167326358401922, -0.16481172770508032, 0.02246017400606963, -0.17143392497251417, 0.14748063492892716, 0.037587051963421776, -0.059664334885417315, -0.1364835075272773, -0.06996919473600013, 0.10004856320338905, 0.11081342461936321, 0.017618679379169014, -0.006552620545216558, 0.006759258491021703, -0.023072987267643057, -0.010620368462386167, -0.003268795309460586, -0.1800405505107939, -0.3098186633429102, -0.2510759187464511, -0.010234474770814713, -0.2235871420151059, -0.2659807987842817, -0.32973820950673133, -0.2679244377276422, -0.27703734137387087, -0.0023080661701342267, -0.07630635325005547, -0.30801423016289586, 0.09923958803757783, -0.20632643623426877, -0.1099803668339306, -0.0018288395166263195, -0.2658551186648758, -0.419470211696006, -0.1978380336521473, -0.08060568807792018, 0.1854155557316834, 0.18533013291426956, 0.006502883087124292, 0.0014595285233673868, -0.0038903922668055988, 0.0031529880305776786, -0.011222790428461563, 0.02292390295614068, 0.0007471538819537189, 0.16836863338331648, 0.4052448857323974, 0.2731170989316572, -0.19002434917986097, -0.3766949414312162, -0.5320465877042696, -0.5348499047479838, -0.4942844266981814, -0.3628161660665724, -0.25438611030269437, 0.0783518909992665, 0.24789605001665777, -0.0556261728909904, 0.15017545701649157, 0.1276481241112967, -0.11462392456462585, -0.1642245198082868, 0.13097615762608347, 0.13611442746064717, 0.1462846018519501, 0.14861369589257115, 0.03504252560124141, -0.0010389738194456401, 0.010453348867122044, -0.0033220846728607596, -0.027950154233204887, 0.022003402136607838, 0.2329103214013639, 0.6082815801987708, 1.0081854288218652, 0.8163243402310896, 0.8844283049223706, 0.49185272223172466, 0.22008627754361546, 0.1365496561222176, 0.11152581045304247, 0.034478299715381626, 0.3405675927777484, -0.17824383757815057, 0.07000413755829105, 0.0009625039326214771, -0.19072824500004992, 0.09739396035704867, 0.07729165877915674, -0.006372882875392518, 0.2882078509235022, -0.029048995795455036, 0.015171838166846323, -0.06894915642718683, -0.028761420468516714, -0.0022503384034708303, 0.002154323503167691, -0.00482871363782987, -0.025477182546377736, -0.03965110015461261, 0.28595204093421295, 0.7416071150591631, 0.9145706571358327, 1.1823176462077416, 1.8013814470423424, 2.015483232841473, 1.4554524619531057, 1.274525842997979, 1.2002399345407533, 0.6523384447441173, 0.26472313578916984, 0.382868538327983, 0.08559662781127424, 0.20568033906578273, 0.0822046907214524, 0.19625691870143597, 0.16282180581077466, -0.008515513096822665, 0.4230731084939762, 0.2870894210340257, 0.140764650669507, -0.04718904985746959, -0.0378359867868787, 0.005086956597017946, 0.0001115344854872466, -0.013263800033556115, -0.052623678074614086, -0.06554962663574929, 0.2618649191315395, 0.6251975590535456, 0.5991906784774561, 0.5809934508631549, 0.9523295414182095, 1.1348495342478295, 1.1880290752749814, 1.0428085012739072, 0.7227446120887916, 0.34372893925779613, 0.26858019474498146, 0.5357354087443663, 0.24588476404202772, 0.35056138608945203, 0.26069558222930844, 0.2096792887835526, 0.09198986803578771, 0.1955129733527864, 0.43031615721806793, 0.3443178431617017, 0.1558358979602979, 0.003062766086440528, -0.008356771514547771, -0.00691529419225296, 0.002816631782286466, 0.01291471077942088, -0.024539735546312978, -0.09789180769240596, 0.10874664896666998, 0.3456981757875895, 0.25291905576137214, 0.11899735443704336, -0.05516703591619981, -0.3399468883006578, -0.05281123423910229, 0.12488346642419242, 0.21565831503793764, 0.44776752996525226, -0.05321053537825713, 0.23210841256456272, 0.3607079651335106, 0.2942441599927866, 0.18767646891381987, 0.12446266095661379, 0.01372925271798684, 0.17597936071394954, 0.039898384251826485, 0.022771829431695114, 0.14366560231144024, 0.02160310978407043, -0.0026609561836042628, 0.0019179530485329626, -0.003693525492403663, 0.0025724005745461445, -0.002032431680299894, -0.08155106270813986, -0.19693029042827712, 0.18195979232528392, 0.059033402622981165, -0.08390640425688028, -0.12932424408495002, -0.4777993685945366, -0.33166152092666573, -0.1998925096878382, -0.12335711165015456, -0.12067547223249331, 0.1921221074815882, 0.3209242524296312, 0.24049353233101703, 0.5311856845550037, 0.14438883028489333, 0.2606516017182683, 0.39489782987303074, 0.27554924038322115, 0.23162229105605212, 0.09159921957932544, 0.12405375739132642, -0.0046574722631028825, 0.007969894022340605, -0.0010657588063372803, 0.00249991176200934, -0.007540399014142636, -0.002083895654140474, -0.04494003056359628, -0.1840460680863272, -0.0999529038075033, -0.11001992101769453, -0.10076854862049557, -0.3387615425975599, -0.10679653916611873, -0.37347978171273133, -0.2229338045151269, -0.04567479717630849, 0.21955431823879312, 0.2515926789211849, -0.0809391869644662, 0.12240096438063651, 0.5165874175009644, 0.4152006895530997, 0.4289064329482242, 0.409995004891563, 0.42590337961866476, 0.08743039054412534, 0.07945836521516154, 0.0405773124863727, 0.036498313566345315, -0.010921234423530263, 0.004048855270411641, 0.013375225803564776, 0.0032405086007504455, 0.010883379222644016, -0.0664903277114792, -0.10786287730124697, -0.2594435482142991, -0.21260930257613928, -0.17363702315188648, -0.3573972974324273, 0.09366304790132551, -0.13270717883292996, -0.21404532486474656, 0.11587714676506565, -0.05216422133059486, -0.171424914425161, 0.28206025628682674, 0.2717872603833123, 0.2527031738816141, 0.1918429025626952, 0.2564989885290048, 0.2742945367020427, 0.3771419750557794, 0.13984447102080724, 0.03464387202442853, -0.0499436459627866, 0.0060267639421667475, -0.008060586175762613, 0.0006232274401749596, 0.0033967170657911473, 0.0017384869594595062, -0.01198347938438792, -0.061877762938141616, -0.16615577458454048, -0.4273104373775964, -0.3508170237434777, -0.32200862129691893, -0.15239189729337924, 0.014097000203192883, -0.24006530647928323, -0.0721421604162596, 0.19010648152220322, -0.007745282021387977, 0.12534155414473347, 0.15773396430920514, 0.11344245575684307, 0.2788083652514221, 0.3149697635975416, 0.4345007779454216, 0.24621185285644498, 0.132980412215638, 0.04813911217922572, -0.06056337550751477, -0.01840620427748349, 0.012929598092617461, -0.009728746537855193, -0.0058927505049879165, 0.0110454162557377, -0.005200051404446379, -0.0018204898567722094, -0.010100362525208226, -0.13786671244165152, -0.2068572581592664, 0.02219748016287123, -0.10519892122808286, -0.14417866878015936, -0.09624962881313436, 0.0559699591953354, -0.0921406813564376, -0.06839614801212505, -0.0777308279732569, 0.046919117777082256, 0.15150590712148296, 0.037746899289810246, 0.22522247013635358, 0.2099465326209567, 0.13476500601930566, 0.06739420537086596, 0.04637468714046766, -0.06650218739205606, -0.12364156584218103, -0.03684319389229742, 0.00504990730593661, -0.007343907492967263, -0.0010577358130840241, -0.012494552239670487, -0.0038248695905809525, -0.00628418387042638, 0.0011296659494371578, -0.01830514780732284, -0.037947630615058424, -0.09342933752203775, -0.11105373838873489, -0.12002591975316612, -0.07981961545295556, -0.1884089010963165, -0.10969287532190784, -0.17327451277758846, -0.06624013318054929, -0.10020897794044029, -0.10620282304690745, -0.06920731665325548, -0.002086910129447881, -0.020440122420574858, -0.060092283850528075, -0.034833720460326234, 0.001441969551613998, -0.0019167649944952984, -0.01149425285586002, -0.002728113761912497, -0.010610545295480762, -0.0010865959073382675, 0.017115386116456122, 0.0008959344939231222, -0.001206581306021826, 0.011444364500498206, 0.004802562094502806, 0.005515691830692394, -0.01451312488787101, 0.009308127414690372, 0.0012830507210292213, -0.009262225952911918, -0.012467488135913038, -0.011835276242306873, -0.008901321320879107, -0.02425496899802052, -0.03061798986315189, -0.032887629555454066, -0.0173320342045942, -0.022064268010781367, -0.012842523436126622, -0.008998242100622594, 0.015448288691368696, 0.0019604686218964375, 0.006890546115585877, -0.009134753907833545, -0.0030842295977570873, 0.0007926876800522072, -0.007973216257835465, -0.00628494222553345, -0.00029857227498484266], [0.012062754943173281, -0.0028376618955065626, -0.0033741168782765382, 0.004757772954935093, 0.007882444540342726, 0.005522727019796464, 0.0035625521566154442, -0.01061883578249471, -0.0008336111743887269, -0.005590084636437148, 0.0033136347407143707, -0.004137719307010222, 0.0015955230120295143, 0.004250794108515193, -0.008303819638496412, -0.0032710344970597314, -0.004506802969746546, 0.003906612770588204, 0.004194922830267207, 0.0007221407710139838, 0.013635958399998543, -0.0015707049209813897, -0.009593712005727702, -0.009880789835637636, -0.0010235820436075994, 0.0033636499199234805, 0.009277254794775678, -0.0016382471810566983, -0.008982004083579569, 0.010686766916849489, 0.00987248364908198, -0.00915355307849277, 0.010457062833865353, -0.015700769373027165, 0.00269191937243088, -0.0027757806132952087, -0.002461149629860768, -0.004891449442538747, 0.0026415389374696567, 0.006172321645208355, 0.003790303934220436, 0.0030259800935502536, 0.010932486316064912, 0.05531762464372226, -0.0011792642856854555, 0.012829455972997445, -0.006164892287334542, 0.0057328853479728225, 0.003361536537896666, 0.005990771519339473, -0.007199314353144049, 0.007142609883105387, 0.0012248227569292226, 0.002794432227118077, -0.01099278083078229, 0.0045729476241796446, 0.022039327867598713, -0.01214104163932011, 0.004936192729156745, -0.0052997962109212135, -0.003140590519455302, -0.011068971477816535, -0.005690056919910626, -0.012311243655729848, -0.040520904236098707, -0.0700103422842139, -0.05943181871436005, -0.06392128316891287, -0.0428038826551892, -0.05342189072962329, -0.031779629083756145, 0.09973228174802531, 0.06283758796022754, 0.0269356475793472, 0.033801072637515965, -0.008231414268539329, -0.008884682149588796, -0.017851444283607385, -0.015953060928740607, -0.0030385411312859956, 0.006411981289952619, 0.0002780319791490706, 0.007671614097843416, 0.0032173487082067494, 0.0008295277336828255, -0.008744344399093497, -0.005576636138922178, -0.0019633197723229892, -0.008826334124632422, 0.023830547069893633, 0.023526578505573433, 0.029091219663995124, 0.0006901231201998344, -0.11979726527563958, -0.1607503688405548, -0.1765019067630092, 0.013421101190468437, -0.07197945343450007, -0.11767783575859612, 0.06866655143251466, -0.04989018676339031, -0.12496427442438364, 0.03883593162702371, -0.1644795919793535, 0.028987643535868135, 0.011568301997944277, -0.047355398564204475, -0.022373205312715513, -0.04487585750308402, -0.0030823481490350533, -0.021665739228350436, 0.0018102076040535109, 0.011419275545224532, 0.012929680775354727, -0.007558777159680121, 0.008555666378761968, 0.01899484576584368, 0.03895917920872042, 0.030887191471331232, -0.004711418244469, 0.02689962113550902, -0.14766595681732497, -0.2154645095527358, 0.059191827856613935, 0.2287309249804133, 0.24225990756041224, 0.31507197536154036, 0.38293607113496586, 0.22354759078487985, 0.006508832188598129, 0.16355182878210336, 0.1110334082804841, 0.25857785351871965, 0.14751910762612713, 0.06542606512385023, -0.02091205754168792, 0.004216742836423858, -0.014744950801467633, 0.004688077980443025, -0.0012178938719518482, 0.006782266891435944, 0.012759626506607748, -0.009038390362326574, 0.004043381660596259, 0.0055924492930167335, 0.07637303318524252, 0.10149141824211588, 0.16918367150516175, 0.0616698330179587, 0.036407466623903005, 0.1011018093251549, 0.2370996737988784, 0.2244716565160401, 0.3468915708190555, 0.027980547925316682, 0.20259582231397447, 0.09718385004137191, 0.2929603337635462, 0.07930815239509773, 0.03795685180328323, 0.11781926794771821, 0.14847030630119873, 0.21188178287716505, 0.012330125687760748, -0.0011941118929876364, 0.008343513201180236, -0.008382775588685555, 0.003690834070157603, -0.010698391327608121, 0.004851033750034878, 0.00218674288097423, 0.007494338689574931, 0.02931080550606531, 0.11100721416159894, 0.004079377383661641, 0.009035379302485633, 0.16935461243138086, -0.17114973629020305, 0.09136099515951888, 0.17422150759281393, -0.05625902886861182, 0.09599037758450162, 0.020580066625014565, -0.008764223288470433, 0.023562170303376297, 0.2947083189391992, -0.03804013944105538, -0.020897456521639875, 0.08954950025074425, 0.04281671562956905, 0.18659210820256847, 0.20627302076155812, 0.057145931601487766, -0.025293647473862778, 0.03133977829028132, 0.007161277795283192, 0.005267644124544137, -0.014653794667804794, -0.01522527411281888, -0.02016832441207638, 0.12362265330920731, 0.128792807322214, -0.10724866711226963, -0.04819128102145589, 0.1507653357906556, -0.16136550923455192, 0.07715023520972204, 0.2643843069159897, 0.16781738433726917, 0.11703944934556085, 0.10984550232695103, 0.23000094639024254, 0.1257189093508823, 0.11044349693619182, -0.29358668394576565, 0.1838789707693229, 0.11032293073802522, -0.029812481505057734, 0.14164254380579586, 0.08900470233780969, -0.003352025968041291, 0.04362109554155585, 0.042494595228777465, -0.006987483981444412, 0.006116036002413453, -0.01178186099464845, 0.018693441345714597, 0.0027643682908437203, 0.06078588037342162, 0.08451584489241369, 0.044767728858212986, -0.11346609800946962, -0.20153327040743227, 0.13799876680401552, 0.17628551895447225, 0.2771993510819032, 0.13232981155234536, 0.011690755750189819, -0.16837649491162054, 0.10562276548812811, -0.1404966770950411, -0.24485798732768535, -0.006737691639770673, -0.03120924805975327, -0.1490216474023106, -0.12971382072008306, 0.06347862970950999, 0.13473161940342374, 0.22388650941664132, 0.19714088891157228, 0.03900541717818913, 0.02073577204539424, -0.005179387860737711, -0.005563312976839909, -0.0033566306823190335, 0.014687516876909185, -0.0196234921661077, -0.07879682949846949, 0.14131981510630529, -0.002789738027047084, 0.014116778698719554, -0.11566439034562111, 0.0153982607799333, 0.12677037884005343, -0.02842642499469858, 0.05323816683855529, -0.08017449069759519, -0.07592120906676007, -0.27728453987401347, -0.10735653404667202, -0.015205081438466182, -0.11153013957097262, -0.024111495836760966, -0.01931819991422506, 0.196781193004679, 0.1674746539724303, 0.2833540972987013, 0.17663169443544782, 0.042734174483880796, -0.05322526472313418, -0.00498203948122068, -0.01004538802347422, -0.027290604985529435, 0.004324040001698399, -0.012289018451330133, -0.20143985397063927, -0.05335724835671257, 0.16784522165021923, 0.325059114280555, -0.08348572828275942, 0.0931638422828365, -0.0977396082882498, 0.0742469216456755, -0.29688804586527645, -0.01951349871784382, 0.07498172745116408, -0.03676521279280828, 0.09527917269503806, 0.10349840359262326, 0.17426212268792104, 0.04758975956609242, -0.054525132088264976, 0.1959991713308161, 0.286549811171836, 0.3011088191708882, 0.21850183879010904, 0.07757989933552402, 0.01011252525609685, -0.012826673460812316, 3.873448037897882e-05, -0.06887874814080776, -0.08072474015916278, -0.13246871977552988, -0.30614990226629546, -0.16348286714046958, 0.3584306584775831, 0.29933304861898435, 0.009038661036631106, -0.18939184066405332, -0.17349322873966386, 0.32991496584484853, 0.12688646081884358, 0.5763224153903131, 0.40024032185063674, 0.35698893581471075, 0.2877765551749424, 0.36755398039374704, 0.2595184458979705, 0.12547690965893232, 0.03189862088924897, 0.0408594970527449, 0.23453129178235044, 0.2583271522985734, 0.1694087167264557, 0.09350032604430432, 0.002920994746921024, 0.0013197546485396203, 0.004484505749181016, -0.03900798632950264, -0.14881680717423418, -0.2052596120848263, -0.39454866734167826, -0.16544553817386104, -0.024486436089776145, -0.15325528771555408, -0.010320857246290494, 0.10214592429377882, 0.14856558417641544, 0.3894489638371239, 0.29511993639897743, 0.5010471010890495, 0.1655171590403453, 0.020530540949142664, 0.08383825244155275, 0.006783067552978246, 0.01974254166200994, 0.23591306383938154, 0.14169792842246215, -0.053788028504289036, 0.10390603565966597, -0.12309554872663145, -0.04933047124649077, 0.0038708293925612397, -0.009886175940327696, -0.008445894950096289, -0.011173096820414419, -0.01987918653092595, -0.17056275332045628, -0.29042097664299443, -0.47857113013169117, -0.28861680843350773, -0.0504576922361389, 0.15415096959752514, 0.2782095444937229, 0.09686950304554522, 0.4116309302443106, 0.2461136813153824, 0.22333344017087034, 0.17602406348519695, 0.14842674575672252, 0.01666720954919845, 0.12596860342989802, -0.10724658267158375, 0.24290121949942248, 0.32584457827902064, -0.08311753388209932, -0.1839327560455268, -0.188308427539633, -0.30695291652016854, -0.14185057471806137, -0.02824079578072698, 0.0029076201028867153, -0.00013290020300028943, -0.010565131745299076, -0.01786949189775817, -0.1486273329446781, -0.29707852646142763, -0.540133182648593, -0.6780704874178968, -0.4793392725083625, -0.3435464151070405, -0.13762239241540364, -0.21133703352449673, 0.06328630306642342, 0.20100822298215607, 0.4249634088324483, 0.3290260932328162, 0.16445196710549717, -0.16470588540403167, 0.12421686586313521, -0.1452517271165615, 0.005445593935517495, -0.030260524305941252, -0.27335554619478114, -0.17218699333729884, -0.09572786228020502, -0.1439920831423221, -0.10943863615662175, -0.009125993078100735, -0.017947240558566543, 0.003197073590081571, 0.011238335495695227, 0.0006899676363085333, -0.08780831290306361, -0.18888997744028985, -0.5869336788114521, -0.8531182223057344, -0.9020541117786849, -0.8317574580447864, -0.5017178274388455, -0.21753701207280837, -0.052792833818298746, 0.3845656078107983, 0.5745540886663817, 0.13957893587889642, -0.019709006925172416, 0.1301722839510274, -0.08124921770497578, 0.034679935796865034, -0.33704807660134933, -0.19126848163967575, -0.0718448563459821, 0.0918403090160226, 0.15860806341553146, -0.04035917126750981, -0.055424815597437005, 0.0008594968559177524, -0.0035112464818628677, -0.00858931714500156, -0.008141957894716882, 0.006736511037885953, -0.08166515393324195, -0.17236949641947386, -0.3667305207648272, -0.510121810899907, -0.7128147502899874, -0.6329683686320379, -0.870222661710352, -0.6742398613071784, -0.2051101923232109, 0.24600064287237938, -0.016794758167473667, 0.09024797298617614, 0.24135081924243867, -0.1098673528527043, -0.296595752390355, -0.1680022848015451, -0.33475051994140925, -0.25046699480785034, -0.17723385983316248, 0.0069421538158354, 0.11297725462576538, 0.03358435052871374, -0.068681585030983, -0.04180444994927117, 0.006057512079698202, 0.008242799112592085, 0.01660640742780791, 0.013074074052780367, -0.04869005705101762, -0.040007696226386655, -0.08931061624296092, -0.10677621196220985, -0.2573379065651358, -0.3870486462911773, -0.7359668925030375, -0.8912202586853665, -0.7011263176503014, -0.5657858300810776, -0.5011671294884709, -0.1589491789087303, -0.06419145108482928, -0.05721995544218371, -0.13228303277042977, -0.11605968250548125, -0.014294846021414764, -0.09381660270962848, -0.07679510030870307, -0.11706193027047784, 0.13134094506797586, 0.1011261349325427, -0.11897938871127076, -0.011257812294031182, 0.003020825192838928, -0.012151309871732309, 0.008950928818521242, 0.006759822618699166, 0.09700101199729622, 0.13199674715766466, 0.17593505055466505, 0.2736515857197753, 0.050562438578373184, 0.031488339004567205, -0.18533134574015633, -0.4410085630864015, -0.5680619763855724, -0.810271530116802, -0.48794293934529437, -0.06436710606360273, -0.32273135847713535, -0.11861917891043187, -0.14127986107693088, -0.29982072357645084, -0.09789434369135508, -0.026558985590918446, -0.1845118890581358, -0.10813455197163721, 0.01092380958949691, 0.07409909724964539, -0.0029175513268243857, -0.009395207974440168, 0.0030190379498869335, -0.002825799485046405, -0.00403900196135017, -0.008198558010350767, 0.07678411655236368, 0.1289732226757862, 0.30548667421071807, 0.21890996250047584, 0.2481596112245446, 0.21961734235088698, 0.2059671777949747, 0.09906547264026949, -0.2684627129726904, -0.5100935601294657, -0.5191115843422537, -0.206199404516724, -0.26334910421828894, -0.0467185975702307, -0.22370308901659106, -0.21852418789640257, -0.20293579565965908, -0.22454612686517395, -0.07746378872239136, -0.006847106123961827, 0.11287226138703452, 0.1338224795780231, 0.04884919206709503, 0.014340965428605986, 0.005401475950603381, 0.009705373303621334, 0.006112311038801853, -0.050946951429894756, -0.10868445741117855, 0.07382944994054745, 0.19431449817703067, 0.355351505277895, 0.161024492697312, 0.25306066160132196, 0.2312251133962409, 0.17554943048366972, 0.19054051738493424, -0.17050209993835214, -0.4322549688230314, -0.32479105324376756, -0.27912237355226666, -0.013815428387850999, 0.2715309319390737, 0.15688804937652803, 0.019907272212723683, -0.2133392527369667, -0.07967199709830658, 0.1305819572801487, 0.012953118829277618, -0.028983309748543577, -0.03237739590304629, 0.0006377677403099353, 0.0068881179268849005, 0.0036628076313159168, -0.004574536672154967, -0.11065049422316219, -0.12688666850677655, 0.03337949470516399, 0.1807760848717904, 0.25279490296745505, 0.09540525997742118, 0.21534087850000772, 0.1896379747057208, 0.2799895125569689, 0.19425629224858634, -0.08470435888137023, 0.06539032514183482, -0.0728423305103889, 0.0561727203946768, -0.050713698413909616, 0.12569701466907698, -0.057722849914472886, -0.2573209956500166, -0.23768537924557903, -0.013623262013551395, -0.023190133954251894, -0.20470566909292068, -0.0974768560386299, -0.031305662812429684, -0.000470533311344603, -0.0008860604150804025, 0.011331605658479548, -0.00688983669198457, -0.08826538637785114, -0.03305917020766397, 0.026960256976726087, 0.006940765297553196, -0.082540797645524, -0.051228989757191146, 0.03606502345955348, -0.186641868162031, -0.0003872414801946887, 0.007069137094057163, -0.2445116978872825, -0.16584588333697003, -0.1538059231049117, -0.12667695616416422, -0.20071718503800645, -0.12288605578514661, -0.15508895231414507, 0.021394524223408783, -0.22192417645941404, -0.17245545019173106, -0.22689465479086968, -0.1822568560950581, -0.08567845096298378, -0.04791061828463673, -0.010897446921444332, 0.004395579939798945, -0.005765399163013028, -0.00330081961283719, -0.0006106292173075085, 0.06282098165922066, 0.0708869210304337, 0.00032963470594585487, -0.2615056935505056, -0.2292991503799479, 0.0816373057385387, -0.23778618043493516, -0.05628974242794227, -0.1810284849325555, 0.005772958468607722, 0.21944074054582796, -0.0961267272142636, -0.01992857975340435, 0.16322936041509395, 0.24480530737754666, 0.19018649990468942, -0.1176403874717204, -0.33680003306818707, -0.3242289878776677, -0.27569847787816404, -0.12472693607734717, -0.009154489079535158, -0.010835899583693308, -0.008805859651029936, -0.0011994071262823433, -0.0006171304554272314, 0.011515979987407592, 0.004216783670985507, 0.023291251750377148, -0.028824580426868182, -0.13020383724166265, -0.19208261608739724, -0.14730552480771064, -0.17960190130632256, 0.052254489173525806, 0.14207113750160488, -0.16586105105014048, -0.08815345911410764, -0.15122583003671997, -0.14227858081165937, -0.30034608293073584, -0.19590770871132715, -0.31036224089380465, -0.2986852778830138, -0.37844132038790906, -0.3041498885280343, -0.18036751683024668, -0.09883994217666887, -0.03694048179443194, -0.028045120438007262, -0.00919249400173287, 0.0036480353334935977, 0.006292011903049789, 0.019356206943321443, 0.002519254613896557, -0.01743280053764572, -0.01444913863415148, -0.0525023798608976, -0.05261740759784611, -0.1393292986726944, -0.16735655501873742, -0.049971326099623056, 0.11870037340678584, 0.11040415273123144, -0.14323205713185103, -0.06717598715525167, -0.020717284434617313, 0.004182019753175576, -0.13691764392317732, -0.06759457684855072, -0.056290575491690975, -0.1671977875740974, -0.09900682925386488, 0.010513675523354051, -0.018978913918361522, -0.00675800932668069, 0.002923271672119724, 0.006044198937647018, 0.00468150733880094, 0.0008712694624711366, 0.010372602536362727, -0.008885769932602502, 0.007437445413949378, -0.0014213958574120658, 0.007871273191228417, 0.025624450158299752, 0.021284629252622218, 0.003563282580147291, -0.03359883513241525, -0.06055540363184103, 0.043438410485309484, 0.045870458931917456, -0.07788849662255669, -0.1544694671162869, -0.21896487660076214, -0.043304717152498576, -0.039215754267595944, 0.039807117002668535, 0.11688783278377356, 0.09966014961996612, -0.0354661984072434, 0.014662384039731963, -0.0011712341251054381, 0.0003822981097429524, 0.0011711141893943771, 0.0022941091928877022, 0.011242551338919058, -0.0033790746789200622, 0.006135056542983061, 0.0015378955457162557, -0.007154312289257965, 0.005443500173369651, -0.0007085454108887973, -0.014300713486154764, -0.007813981170484246, -0.009055293113430455, -0.014780781553421794, -0.008602728625411487, -0.0029437418349378968, -0.03603768072360242, 0.013916215931036539, 0.024196198560345748, -0.02085533180104091, -0.00615817953512791, 0.05943975504869962, -0.01850357547791264, -0.02660627001232936, -0.002027529096033794, -0.011287327530335475, -0.007121900011713431, -0.008624661939478697, -0.01718910858271486, -0.001395294986702943, -0.00018228385856408684, -0.006496546992318697, 0.01082852866054237, 0.006217664152124168], [-0.0031651759445624405, 7.414510082155999e-05, 0.006320130522457088, 0.0051448694394898385, 0.014474761185504169, 0.01337625601252773, -0.01228737361172014, -0.005117214285420484, 0.011977425754854169, -0.009454975289804421, -0.008232594869510423, -0.0020653483408855497, -0.007027438945881213, -0.0029425989034018974, 0.005573355388046693, -0.0010907657703541763, 0.030908704743013184, 0.01530503287451084, 0.003748440055993658, 0.0003640303734144831, -0.0002961793790053852, 0.005043659248517275, -0.005308097486644658, 0.009605095445376433, 0.000985609010228215, 0.0019755401521997884, 0.00452013759104406, 0.017308322857988192, -0.0022460719434208194, 0.010784436947027165, -0.008130166985414532, -0.009636625451770613, -0.009590753629294237, -0.010431758037295263, -0.054784152302839, -0.07627530353725694, -0.08434202252314658, -0.04043049094547281, -0.08723097182984042, -0.05769894982155076, -0.07164687582171368, -0.050096353194007404, -0.021364725412861312, -0.04241388200041677, -0.0219488596393671, -0.02743002717064983, -0.054566053118077, -0.03203362466331581, -0.032423914722906524, -0.06980564188901114, -0.02186952461563895, -0.030967171125148796, -0.004653599631416058, 0.001659820166137468, -0.009662753872520314, 0.0003252864385334454, -0.008608779326022607, -0.004046560123541153, -0.007211128632053109, -0.0018270019525508912, -0.007910353445630819, -0.002634752437887074, -0.04633287492964228, -0.14439717205862115, -0.1463931495174185, -0.15384172351203565, -0.1968989150977593, -0.18101664490816252, -0.16746154162469706, -0.027004274381666867, -0.03181883879855885, -0.06104865259864678, -0.1899782443696845, -0.29447177047696954, -0.3177688559073846, -0.15888988968817058, -0.12040494169634063, -0.1820261530100395, -0.08872572825060933, -0.026235865313378324, -0.016668091731088942, -0.005507905322641444, 0.004655519431493929, 0.002333026719155217, -0.0007681282481039361, 0.005848762277187528, -0.0035826726879754148, -0.007413448359823673, -0.013267337359502302, -0.01188285924054001, -0.09954744195703791, -0.20646544957509605, -0.210773043529146, -0.36886572871497186, -0.21631479423892658, -0.31902255753541015, -0.3114872406297372, -0.32536301165880294, -0.2395243527246021, -0.2980207224911565, -0.40803223578499703, -0.4145181841870761, -0.3357861916359022, -0.2244551456499193, -0.1633557149485812, -0.07438864705306103, 0.0009664144597834001, 0.006124020940135269, 0.015580357509200947, 0.0005395947994971455, -0.008470568293598336, -0.0016278856058590365, -0.002963687694923848, -0.01627696952667361, 0.00020840239659773317, -0.010786066233157622, -0.006058388116530964, -0.049233445820825866, -0.1528187163242973, -0.22372595866828726, -0.41757492519895417, -0.5307992003550634, -0.45671377908457506, -0.4781924818343815, -0.3818105895033267, -0.4770543748139009, -0.41021812492195947, -0.5478282893554837, -0.4115373954072902, -0.23112064635639634, -0.16759750708129317, -0.2747401652124239, -0.032018392239040704, 0.172204996262212, 0.1457968395376611, 0.03388017107085522, 0.08434333340728511, -0.11656003848015258, -0.05936497209430797, -0.006642604419461029, -0.005866228516264295, -0.006593570834321167, -0.00834967257762777, 0.0015106250251361837, -0.17916839041947324, -0.08142113613484288, -0.09255123381993897, -0.017949566887701423, -0.06601855861200072, -0.09439163890039301, -0.2512500523657358, -0.31013288077670653, -0.393286038179784, -0.4086425249346664, -0.22152060853514566, -0.18070988926500423, -0.22686584747274713, -0.08835150666420698, -0.0012074121966408333, -0.35309263969421245, -0.03579601760890431, -0.05219520688249479, -0.05124445801215742, 0.07981117310253476, 0.10600344152613841, -0.12148379079227262, -0.032215420306838924, 0.0006032435646811192, -0.0027706450009487523, -0.00019691072287140107, 0.0056754062208206986, 0.0174864952721311, -0.15863370039499744, 0.07094269679152441, 0.1836105104342056, 0.3491480974372634, 0.1541501831451792, 0.3197780054360399, 0.15115770032790574, 0.29289008418615226, 0.1427216721796582, -0.007949661043238253, 0.09900148836538313, 0.1797416287102498, -0.011989095569670025, -0.11413973226954244, 0.07484545520790556, -0.10416886807300149, -0.18996660552062022, 0.14844183943755093, 0.04635689966153415, -0.1211574216925503, 0.11736094470883619, -0.18391277286671073, 0.0763710336954776, -0.0043088349604230285, -0.004352073199705175, -0.011710387295749667, 0.020445255857785668, 0.13507461334515883, -0.11699434511452811, -0.26075929625401495, 0.10317859525826907, 0.25469228884696143, -0.16498304111089443, 0.17494797275267174, 0.1122776947541111, -0.08098961421441427, 0.3602177517017331, 0.22701518541827867, 0.10821431078379337, -0.09887532451614868, 0.25336790709369683, 0.16542944237477528, -0.24826151022432164, 0.19636278690991613, 0.1523662042868072, -0.07182005919639158, -0.1724976620390113, 0.09977424278744614, -0.0011818636436434424, -0.2775958880309871, 0.07218468398811485, -0.008334788100135822, 0.003050549065470704, 0.005040547886563819, 0.017629123856483356, 0.07457010728244547, -0.16333560689796228, -0.10812378216963363, -0.0832244549577802, -0.06818008638015692, -0.10888205849734281, 0.14462806143190257, -0.2510721474551959, 0.16489798033853031, 0.2511678851052579, -0.17475157717901682, -0.041097782817991556, 0.3428882973521901, 0.0065131267318671564, -0.04596912895618967, -0.05669599163411053, -0.14700801067465552, -0.0041025286650594175, 0.051668791356086666, 0.12000181668939693, -0.19708893944102154, 0.047968154639816005, -0.11298424601220704, -0.03691868136168221, -0.010074793542733345, -0.007934327071922006, 0.023172346090772938, -0.011232515451522805, 0.043459552526622584, -0.1685379411592099, 0.048549567182759254, 0.15522647536627715, -0.06659756856159516, 0.005966828201901152, 0.02667877347889092, 0.3047453932754755, 0.2170937991112005, 0.41200011368800055, 0.08283609701269877, 0.16839255054345614, -0.07097012838370684, -0.20015810219052244, 0.2857428445520861, 0.36132495943188253, -0.04132109176310582, -0.06399561260249986, -0.12801299489135096, -0.04067597728668648, -0.4184119690167257, -0.15403718460783378, -0.18167075610853436, 0.007381015336215595, 0.10433089942175547, -0.006168360971736929, 0.007851688198400032, -0.004185760174300154, 0.05510185672249243, -0.2429452307670233, -0.055099848730272856, 0.15607912059568305, -0.22120279002516877, -0.38142572384502466, 0.07560857249839717, 0.15072751489899372, 0.21576106522657876, 0.3221822319533825, 0.501833675134202, 0.00924427191129529, 0.3145118680338099, 0.17637171790510622, 0.04059925930506272, 0.06555521842893905, 0.203134698785437, -0.24775406329484434, -0.20604555889135312, -0.202026939305718, -0.15606164853876076, 0.13112996890570716, 0.21987287214623907, 0.06526301233449297, 0.005043566135243437, 0.005234105393322592, 0.003375003533498766, 0.06456690112352186, 0.12504601077987382, -0.122839443145785, -0.2245903518966599, 0.22932092818230707, 0.07103615467522098, 0.07711271734688234, 0.2273779499505671, -0.06380411202396888, 0.32192578954993556, 0.2202029645307567, -0.20046035791451147, -0.17009122728954654, 0.44432834742602856, 0.24074794653786405, 0.4852603885387937, 0.17108010169524085, 0.10692121772994334, -0.06383430731924128, 0.18842116933689498, -0.2242594096238335, -0.038082717743808295, -0.133090255589298, 0.026574995501366105, -0.04601532709346032, -0.0151864525039368, 0.010309126533664295, 0.013020305826038251, 0.04126415232083732, 0.09314237333789911, -0.14122236019230244, -0.5381314349062184, -0.01748019692433477, 0.3044714818017163, 0.46522701071238426, 0.03701071753371646, 0.3179265063426042, 0.08915190895899917, 0.014770143813842057, -0.20233158975249058, -0.028720716402437365, 0.5304251273264159, 0.1762011561982413, 0.16910586338047598, 0.26055017008833303, 0.35691721045998503, 0.1741429955454211, -0.2568560622812055, -0.1965225715460884, -0.2473293087730141, -0.27465603482290385, 0.09018202764514915, 0.0634713250705295, 0.04534918087434719, 0.0015157372318730005, 0.0075568427900971095, 0.026688982217094183, 0.10998062496553603, 0.052286637127228926, -0.271408431022774, -0.1430991273584494, 0.31389598107966016, 0.04277891376266087, -0.0842890441749749, 0.33722853870631453, -0.16477497376675798, -0.18326958418541403, -0.0165047646971794, 0.2627714434377608, 0.17285042748599125, -0.01179844189655259, 0.4238301458957778, -0.04568229506699892, 0.010106825847980725, 0.10952799615810245, 0.05282193048236203, -0.3854593626624426, -0.22541868519012517, 0.004084940041476441, 0.07664291318147556, -0.01704047736471857, -0.007818480201405121, 0.016574073446492945, -0.009097094032398497, 0.014389267482808282, 0.13304110958629978, 0.3029542731273562, 0.08773881482150596, -0.05377741735373067, 0.1820408935268937, 0.03930431858166826, 0.1859461295981693, 0.04200287790917944, -0.04125717994089471, -0.005317954986252887, -0.3328417050551187, 0.055482081893268885, 0.1926401696359647, 0.34365741497663704, 0.2557658554770215, 0.2982992318602071, 0.3100976909120565, 0.44444266415988726, -0.19070485890694694, -0.13465215441729286, -0.13155131235444936, -0.16761089229924234, -0.09910285224073834, -0.016603630572825035, -0.015473822268753941, -0.0002156923474809336, 0.0005630991636652004, -0.009649636752444155, 0.10984142258086069, 0.35396750924123715, 0.4483345017407755, 0.37622409258803613, -0.019747810290316463, -0.11644691640252358, -0.0957666625671744, -0.1554113835754186, -0.13747767965399363, -0.016642897897759346, -0.41010973346159996, -0.2863554775222253, 0.23857182272661354, -0.09646218460476413, 0.4468256191320919, 0.1385394390640228, 0.1232527728460461, 0.12997436488947023, 0.0033469765324254134, -0.07851998528776932, -0.22953586716149532, -0.42270129486440083, -0.306764650307253, 0.06411434308131264, 0.00119959115484356, -0.0058800241259001716, -0.003029981848921636, -0.029098224403621274, 0.06950310665342188, 0.3667588420372181, 0.3871761022709883, 0.3955635808823446, 0.3083909860655483, 0.1558543818685635, -0.2829285066904097, -0.2722660107221068, -0.14493077128748483, -0.07060801435175869, -0.11539897065010597, -0.18590777747465334, -0.09901958874553127, -0.19061285770638228, 0.34748916276574227, 0.07882378047540332, 0.14980295675737407, 0.17848691823880425, -0.17875330995827057, -0.1258350193851887, -0.3951788668032652, -0.42936125131705155, -0.3394869679019767, -0.06819180249564463, 0.008336681721434716, 0.015786954681964203, -0.0051547360577722315, -0.02065942109618455, 0.006705733178180025, 0.1590755081391721, 0.3151587943309746, 0.4532405060444364, 0.3654431207535844, 0.5215845101132615, 0.5760301191062054, 0.0014443936300014893, 0.18562635216571147, 0.19465760026506612, 0.2306816017873523, 0.16685369689371968, 0.7041212403409673, 0.4019707047164396, 0.28451105951055544, 0.1551758214814814, -0.03033470089568994, -0.06857361249654649, -0.16683322644312623, -0.06890763045091139, -0.26935025130051404, -0.3230240467575506, -0.05169291408413118, 0.018422244998740473, 0.012224997040925776, 0.00904587147302862, 0.006613491536900275, -0.007550252144605594, -0.08613377599543422, 0.0038318941507648643, 0.36651463880086216, 0.05138450052814286, -0.026307184622609916, 0.5858018266621166, 0.4912359007441591, 0.5893772427852904, 0.6527406795978749, 0.18014299302532652, 0.5802881825625273, 0.3143897846191711, 0.46296737993820636, 0.09726270169963377, 0.03507159581539469, -0.24678848926403973, -0.29499033629340093, 0.03544561821641704, -0.026859465790134585, -0.5186663431867501, -0.7005425826010305, -0.312053027005856, -0.009690690589705762, 0.039635321472366196, 0.0033190280081199248, -0.004935010620333607, 0.006700376320196226, -0.02080954155680806, -0.1330881371115065, -0.08718570223678826, 0.017135061288147107, -0.5430263061024461, -0.3172077203594617, -0.2924175539577606, -0.3753112018826998, -0.3178228860648991, -0.15553122675288966, -0.004239120299615242, -0.05477463432006849, -0.06859075409147633, -0.4372125359708483, -0.26906957366638745, -0.600504989342957, -0.3713506869899102, -0.1157902277949676, -0.1479804006221038, -0.06650865137738958, -0.3659725447969029, -0.5862333082409082, -0.2595164701199459, 0.01944960721841971, -0.00476628410496867, -0.004590670034041162, -0.007034334011923411, -0.009868369687979661, -0.02605503687050761, -0.1492439288067751, -0.2279699842156972, -0.17720605879550594, -0.430886592370627, -0.7767573550280404, -0.988388409329135, -0.5786106387263531, -0.7078309466788746, -0.7085756705041532, -0.6707724228153882, -0.6154719335257992, -0.625424821580129, -0.6599807198217909, -0.14301515688387792, -0.5311788954088795, -0.16970755385166852, -0.02133310541631944, -0.46202972830588585, -0.12616425398379874, -0.07475949746908764, -0.2070280653499451, -0.11598056244536416, 0.018360018259760146, 0.007342861057500803, 0.003831954080243537, -0.008961473260507221, 4.242688387410672e-05, -0.0186250343224651, -0.16694575263546274, -0.3285662004292761, -0.24313171526695657, -0.44737531291516003, -0.4829119686084868, -0.7639012117573488, -0.4621817706232231, -0.3923104423185534, -0.7446877995287, -0.30058081945823706, -0.5922568005296492, -0.6737414804222733, -0.5851276460413292, -0.2002858393375826, -0.35864131358761797, -0.09277235085796354, -0.05996878322459883, -0.23968091125202629, -0.10272872359744002, -0.1301639398008366, -0.20731177815474883, -0.015329587174157763, 0.030572161411484673, -0.009527988368190597, -0.0007013670283768232, -0.0030120419574954167, -0.0002892862526604733, -0.032458094162394, -0.032632124607245704, -0.23433217617437835, -0.42090231609913625, -0.38913569182475466, -0.13611404972045218, -0.20984819629032364, -0.4139523103281562, -0.16749254284579113, -0.2201986067023052, -0.10758928837599481, -0.5351329608456677, -0.2927489510891977, -0.4200834134222371, -0.4802681327529216, -0.29224988869497986, -0.1465638100040389, -0.2578261044802487, -0.215854011596352, -0.2066216641307233, -0.1315931669728617, -0.18232905266561145, 0.042118584655972555, 0.02195179747375651, 0.0025904406531623183, 0.009355545720961152, -0.00842494202568019, 0.0012600905472158505, -0.03446272043916254, 0.027909471630768744, -0.0556214582912588, -0.1041848010552852, -0.0581409237002177, -0.1055829589036295, -0.14234452515730409, -0.2146991929857057, -0.21186492772264093, -0.2827001720973112, -0.37768485709544203, -0.32537228441343297, -0.256016542160833, -0.6539832219237325, -0.5372479398160984, -0.12374907358840698, -0.2093690928186871, -0.33643139723098425, -0.11020862600409452, -0.18629194328095983, -0.2058903398908454, -0.07407943332334467, 0.028573060047860623, 0.007038086100967635, 0.001279543891767426, 0.0021336134823312547, -0.004499264828273705, -0.009737201691971379, -0.018414000838552023, 0.034245890786430616, 0.08196772171301443, 0.2754217838785391, 0.0995181961031699, 0.1641316380440301, 0.26780291973152137, -0.06275785883436384, -0.22943908704237334, -0.05500767169337999, -0.5045238897082431, -0.40553303600260354, -0.3879972698156288, -0.4882330384635235, -0.444422485932335, -0.1803096950709092, -0.39009976675098923, -0.38333166486537135, 0.08582838450511604, 0.12116248298892822, -0.005183310212636684, 0.042264453775618764, 0.001552426229087961, -0.0072721499726838175, 0.0009802916550504222, -0.015843372220100013, -0.0017603210405959095, 0.007267287563226963, 0.007054575673953564, 0.029744081634433116, 0.1518554328979029, 0.20395111245825054, -0.05452975976316421, -0.014794627130228643, -0.014335238247331654, 0.07915066590036643, -0.06573321644620166, 0.2292367015987739, 0.028875380385497383, -0.10303075921934117, -0.08320086240462944, 0.082144457016066, -0.09530164174244474, -0.2011567216296205, -0.231561651718291, -0.24816195694633394, 0.009183215774772853, 0.057268251043589055, 0.051957044052602284, 0.10840263942781453, 0.017381228402092663, -0.005162562903058686, -0.008561533619074116, 0.0032599475423102844, 0.016508758965416308, 0.004674321083339388, -0.004338226113914851, 0.001578667287048812, 0.013674293078011067, 0.03789661432460103, 0.08102510927922144, 0.135986987056759, 0.14874561154368246, 0.23170305474970848, 0.21978893832258756, 0.10868334206114819, 0.10828468081551207, 0.1722600951150919, 0.40673375730194306, 0.3704988710090967, 0.2909042172426383, 0.034280096546692104, -0.008746687924435422, 0.12173168210700494, 0.06557175443830494, 0.0662808540506149, 0.03473959526106193, 0.00533932263195143, 0.009500440069022762, -0.0035675545868729093, -0.003263436511238449, -0.014418403923817536, -0.016254372356264233, -0.0018271087042931458, 0.0011554311582412957, 0.01743587737356711, -0.007569496109908852, -0.012999159182437445, -0.0016146629718698019, 0.006978954472863387, 0.0034152184423405134, 0.005801115206009656, 0.029350916757246978, 0.015558607703029751, 0.01929054194072725, 0.012777924266476145, 0.03896867583794056, 0.01696610739291195, 0.034318242557651486, 0.019141055068321717, 0.019784988284344676, -0.0052989653544781735, -0.005980019510178424, 0.008563833756781268, 0.015936990046476567, 0.0002856253538570209, -0.0028777847800838803, -0.00708003501665022, -0.010896520168017522, 0.006945741577483456], [0.007791836037661505, -0.011703190182965395, -0.005886569970552707, 0.008575119997776649, 0.0014116625992667941, -0.008564367524957456, -0.010353074434972803, 0.012090843028112277, -0.009534323818517225, -0.0016264943751455026, 0.009967843558646775, 0.008522360402827014, -0.0034994282616757164, 0.007528369329532186, 0.014134596440878678, -0.0017204335567830135, 0.0017576287760174805, -0.02179605503109729, 0.0032424676337750105, -0.005473363373241631, -0.0067416392710035935, -0.005153702079914847, 0.004471965275021989, 0.008588847175405956, -2.6177969083380813e-05, -0.001396487313890968, -0.008442910275674087, 0.003456156523117547, 0.013302378959005332, -0.007271428362571616, -0.012038990264398364, -0.007171573322195896, -0.003132245205493949, 0.004051884759967988, -0.009991022690267738, -0.011041585957716567, -0.0050865015613556705, -0.004983800101486455, -0.04179114694455651, -0.03290077430628608, -0.03535177796079015, -0.021063060125778146, -0.017523861645074305, 0.005549034307490729, 0.0055397445879960825, -0.020356231927181976, -0.019198683400258855, -0.021415991563584282, -0.0067029230786295625, -0.011615991935839867, -0.001602413425155016, -0.010986754659979158, 0.002076513113991552, 0.003760900630374338, -0.0076340948577582, -0.0031398078097413674, 0.012789589067679834, 0.011840181286654832, 0.013792734362528782, -0.006614026261753874, -0.004903256278069006, -0.004590206833286638, -0.008294348128432896, -0.01169851988176567, -0.01684814724849377, -0.030305568639576758, -0.08615471272697409, -0.06634226424419316, -0.042904943704651075, 0.02863388677689146, -0.01920093044980467, 0.007245650847161386, -0.04893901872668042, -0.05611658315056701, -0.07398209256504219, -0.01170919732837151, -0.03517807982690095, -0.008923647270408439, -0.026130684182148072, -0.02131680393801876, -0.005424562917568544, -0.0021428504364598366, 0.00357098157629067, 0.00478258399227561, -0.007253685200538622, -0.0033485614034972568, 0.000849917901219386, -0.0030279546040570438, 0.002745097147588929, 0.0011250633362683057, -0.001577434639195057, 0.0032402620991640444, -0.09186057510513833, -0.2109269159172568, -0.15502943318925502, -0.1149062213903564, -0.0766817885391903, -0.04247564186485965, 0.036238194456283894, 0.1310492783632971, 0.043520607153617726, -0.17338522704368067, -0.242625135610854, -0.027861065445697056, -0.06920809191207258, -0.08660562775300863, -0.07890102054329265, -0.08902847821580953, -0.02402868318448528, 0.01441881298532128, 0.025878031823168574, 0.0012226676475435034, 0.008414280228058993, 0.0033905804338887815, -0.010558042415463056, 0.005137328282373838, -0.02307302472849597, -0.0021491347211472166, 0.06450174382320033, 0.08500120024819004, 0.03239035331038936, -0.05062456312604638, -0.1401707184865876, -0.08582338146478673, 0.018544334488558824, -0.10859912185191845, -0.14089426864504137, -0.14495150048039018, -0.2729864129781992, -0.32026296579955044, 0.02403393644682836, 0.036678981111666564, 0.06162923186807311, 0.009739547528066642, 0.08239442026933815, 0.10113222089379723, -0.041542890115428284, 0.029161573902990394, 0.028297561350545886, -0.007764069350720318, 0.008397173804135585, 0.0031914438673347097, -0.010446451993605626, -0.009969130190315022, -0.052469617854041486, 0.14117893848193763, 0.21666561798147357, 0.0894029523135416, 0.2339854651450536, 0.07271452349014824, 0.11125453231810133, 0.07567020511187295, 0.17151555050626527, 0.17380353151156927, 0.01005752315115826, 0.05297218015262732, -0.04189041861355047, -0.07979824965446083, -0.04375942223831898, -0.13924906600789297, 0.08098147923733716, -0.05794742341252757, 0.09353041514829605, 0.154274872582835, -0.01917910812941389, -0.011117739479901188, 0.006933585407494595, 0.020617425537052748, -0.006052843580653524, 0.0035775395403882496, -0.0022318040235537106, -0.0066127933421146964, -0.09768803527765466, 0.10741390572016185, 0.055076938761239785, -0.00019369438786951364, -0.058748219742550574, 0.1113854402655709, 0.03822805267010292, 0.02231005058077567, 0.1370431465593038, -0.09999258993350303, -0.04587577314452933, -0.1619571180886143, -0.09510649848543397, -0.20937987986808432, 0.02789761355558248, -0.11498435956561352, -0.12458503996186791, -0.319412714794359, 0.020772570766626478, -0.026989540335174218, 0.0982302895372617, 0.12941167993051356, 0.08685587622505206, 0.013043669287023557, 0.00475219815957653, -0.0228025464546302, -0.01130604101229995, 0.018587832024465154, -0.1493768986269401, 0.0625229413502788, 0.00902701044845263, -0.1624438972524998, -0.38045732869697546, -0.02033311487560944, -0.07747958296464609, -0.018142903518284185, -0.04628078141708384, 0.27981664025300634, 0.35595602063030884, -0.10980715459013952, 0.041884481209084896, -0.08132989895389031, -0.07167063373248925, -0.05866550070021062, 0.20959686658801843, -0.0933702087513969, -0.0007375975258941131, 0.07634434241371217, 0.14249599995339263, 0.17029640445743, 0.03994102216935807, 0.010305504296038064, -0.003972732803220233, 0.00803169039873026, -0.0013537769460313103, -0.010654583999089914, -0.1401004891395962, 0.08256838447578181, -0.12939526731333684, -0.22768028364600984, 0.12099684672503916, 0.023772885536202566, -0.2018433038093163, 0.006088886051134555, -0.10411967161423097, 0.07637837398918718, 0.03602673396767502, 0.08346249246098239, 0.0848458664434452, -0.16629648725039403, 0.0038043086226357084, 0.05657558293172462, 0.23061486483160396, 0.10414564391199178, -0.23166445438685224, -0.058951289675066756, 0.19758527061221767, 0.1564851652395065, -0.03574926938847995, -0.005525902696626061, 0.009694451243278977, 0.001839383120538898, 0.0033894690441177216, -0.02759515844415986, -0.20992173842681672, -0.09816442191767535, -0.10201357845773285, -0.1669340355230518, 0.06654170695049791, 0.016744492963245827, -0.048969961726264014, 0.3430047984980481, 0.5315608978469125, 0.09070244496978415, -0.3316538477645701, 0.09374106347377177, -0.20429615869897721, -0.3591906650171738, -0.07019551319405178, -0.18329074773439727, -0.07355126015164647, -0.1391703737351081, -0.20107316085848945, -0.11880318613619247, 0.018911852766558015, 0.021108989157235802, -0.01061734735922471, -0.0003287457013042925, 0.0020255236652485724, 0.0034133135215869566, 0.010942528568748807, -0.04722497929008886, -0.12339306842729408, -0.100767821511973, -0.15721135520982735, 0.06344080517290455, 0.024766994973010898, -0.11776064575214139, 0.1365069381117506, 0.2925087309199961, 0.5037693314290849, -0.11455688161946499, -0.6001203661079041, -0.06596280715260602, -0.3316408062490674, -0.19097116547512352, -0.3137073349922993, -0.3766491443292813, -0.05490870172518799, -0.018992062945698066, -0.20010636359904532, -0.5777450245275346, -0.284555573506585, 0.036063280413114976, -0.01291717225028767, 0.0018515025668888235, 0.006458785444656758, 0.0010759939721046057, 0.014098357263811949, -0.023644862233221497, -0.08635608109041293, -0.1097408169105916, -0.05024668008725289, 0.016589738876806242, -0.08960151911686597, -0.055169927950854035, 0.43519868349341606, 0.1316475574502565, 0.17728405111183324, -0.4491986074795156, -0.9086800830791729, -0.11003999256148507, -0.034041392857216884, -0.06378759842872891, -0.07304721935077638, -0.4413316857303231, -0.21160844339657867, -0.3366483894472707, -0.375101203999415, -0.5344163402540408, -0.4283385949375382, -0.10397885091855875, -0.008513778800247427, -0.0021548828692397417, -0.0016574926273674694, 0.009585328097953648, 0.005640657967939864, 0.05276575281230659, 0.12898684450919362, -0.16464613777826295, 0.07546788205166167, 0.06418450288161978, 0.23317081227151026, 0.24831668777186086, 0.27521325082805426, -0.030274089916412186, -0.2914396080814728, -0.2942389038037609, -0.7032602926028263, -0.18025121529579852, 0.0028717628765017084, -0.24183065913778587, -0.021231701070229755, -0.12913078387114119, 0.0960933629526653, -0.0370399593967093, 0.028850188468614518, -0.16591578105066307, -0.3335613728803396, -0.0998609994564934, -0.025606281703788068, 0.00441462139941258, 0.003660741496064255, -0.003156944916973087, 0.0048545977252793205, 0.02615727339191456, 0.40414300756244775, 0.09977018802984301, -0.02104520533302556, 0.2531854526925432, 0.09156132100349022, 0.3227661962258642, 0.15284321318951238, -0.07177412745693033, -0.24877243852088304, -0.40536218522770406, -0.4729023783863283, -0.31362732592720094, 0.2155502129608216, 0.3746397665674848, -0.007640949084929347, -0.10844010505646197, 0.1593627503086013, 0.24141345825027627, 0.3001276613873644, -0.04219573926639421, -0.29854930873099916, -0.09434957912917737, -0.05095006710085697, -0.02131041137052494, -0.002514154899936414, 0.01881113436745556, 0.00030599793137983146, 0.05537799491779016, 0.4315518296780865, 0.19619437878055046, 0.015449243841406035, 0.26758859025665804, 0.236147715927368, -0.03887659770077731, -0.035600487883987286, -0.13004389642733333, -0.316781541639803, -0.4207394736928221, -0.39803384368798755, -0.22823624441507429, 0.11889383456859588, 0.06938288061780039, -0.07011960800574335, 0.14945156654603514, 0.18524781898760345, 0.09884839988523825, 0.2673272029737356, -0.012924746659366321, -0.2186901284888251, -0.11818485308307976, -0.029465614925793665, 0.005514815830435038, 0.0032640896052044776, -0.006188939968278708, 0.0015598747563267705, 0.061278926536395315, 0.1953732502934936, 0.20191199620459624, 0.13194996553841581, 0.11211048956940137, 0.043390092921027065, -0.030266532679214433, 0.3609819494235732, -0.030705704495115307, -0.1999820884262377, -0.3931142610864038, -0.6981004821964832, -0.33295273597358477, -0.027549674179853365, 0.2364427652013719, -0.08390392211767649, -0.040156443642918406, 0.24189616040817793, 0.3237078658195693, 0.17714117435754695, -0.11323749138652558, -0.26801324796639336, -0.22196913726182688, 0.023662277220258265, -0.0008910894215344651, 0.0009677487111983485, 0.0019292465152188926, -0.007036389995098476, -0.05205259075044911, -0.08379496451718593, 0.14629922595002526, 0.03636323007280018, 0.0706989350148009, 0.09361351470953158, -0.18850060199113206, -0.06588638556623895, -0.20616959769803808, -0.058282763409853985, -0.5349837470656514, -0.7651397313544998, -0.055079887005338155, 0.25312648930622517, 0.05186056200243638, 0.2960097780352114, 0.09513763378681557, 0.350922854502291, -0.053101343988839964, 0.17732768543265728, 0.035748926942280025, -0.0659290456924368, -0.2251338532232535, -0.05961100369083571, 0.008024613272712143, -0.0005459573056877315, 0.008994914376913245, -0.03072396240220728, -0.1380634740253776, -0.20412119453708624, -0.05799288384460621, 0.14540951639766345, 0.006947814050378444, 0.10731873697770675, 0.17129035971091716, 0.0396427247715301, 0.05770846574002669, 0.15292056020615294, -0.8130644499896804, -0.3833358785769627, 0.34371223747302443, 0.11355161621112989, 0.16533098289294623, 0.4099817663282105, 0.22397583950415945, -0.005252256530141566, -0.38354801398437355, -0.10914230906817579, -0.012468745006188256, 0.08202251820740918, -0.14920547022341302, -0.03584814182468759, 0.00737877938372589, 0.0074535273662071294, -0.00666099141952752, -0.03598299955255577, -0.1268541205024223, -0.2109114232223653, -0.040176913126272376, 0.19785664118664253, -0.007352011311370328, 0.04316743730248431, 0.13334903449899377, 0.055758480395118944, -0.20445473159154096, -0.3936708063215569, -1.1263998515866491, 0.14419662942735492, 0.44173108274233863, 0.4131974910152247, 0.15419447300551523, 0.10232938141992674, 0.25549986031027927, 0.168201051777871, 0.021374498971099293, -0.17003279475365074, -0.0428379563295507, 0.010117707951646319, -0.11176042362858106, -0.0030056973816555066, -0.005368343367658334, 0.01963583528991268, 0.006353850712381593, 0.028981371559574098, -0.1149411437793088, -0.04092615494158873, 0.06268025475476662, 0.1639656660476358, 0.14059376315805155, -0.06618347199568518, -0.2518723382923158, -0.17364428217853442, -0.07296981180518079, -0.4777836067618939, -0.7464396658926433, 0.34822784838610704, 0.7412466420686697, 0.4210960391957081, 0.09711722898883189, 0.35224468365237843, 0.21048524396854373, 0.2121798540800642, 0.012369107131124367, -0.2568193637170418, -0.08097784614568597, 0.08782455349063284, -0.05788094092032979, -0.02958578293905183, -0.005062075997497518, 0.02114453734414416, 0.003299743854275442, -0.004637287823197783, -0.14299583309373032, -0.006559973241079683, 0.227646204544602, 0.09491486314147302, -0.07333144698318211, -0.16224705996749417, 0.08769387671565422, -0.1809256867112647, -0.4261491894264186, -0.302541219319024, -0.07988597538801981, 0.580473964355353, 0.4545403285070859, 0.5295626970606175, 0.45141239023674984, 0.13462089799938146, 0.061276125216515834, -0.1444822215995295, -0.09433917213494243, 0.07051954480819372, 0.052014212362665437, 0.12876454338050441, 0.041758281034427774, -0.013273048240480595, -1.9172669937771757e-05, 0.0014042539284379947, -0.003355424686778181, -0.06282560857216818, -0.11180611903995721, -0.06158133946767428, 0.2501794140324673, 0.06923121779288634, -0.24677066304025286, 0.07975881972230996, -0.08114635077783337, -0.3366348597507627, -0.25742635270362907, 0.05151804158153812, 0.13654955056521736, 0.3838278871336994, 0.23002281474853722, 0.34853624153284885, 0.007018097197121467, 0.09334478900688034, 0.14153380205404717, 0.31069521644811715, 0.1524035217121955, 0.03133093419940006, 0.08693042139898198, 0.1665107549565672, 0.02892165966590253, -0.020739936071654193, -0.002759877783670857, 0.0014013662459246665, -0.015448440801091335, -0.037709437023179575, -0.04188201690291072, -0.09213293801485094, -0.016386826583171678, -0.1785673182577589, -0.32020103682976797, -0.30782770285588196, -0.37615221579814445, -0.3914664724597422, -0.09109754006991855, 0.17774497577396978, 0.3469398374200791, 0.24821681703694598, 0.0263765858597557, 0.16810075978751182, 0.24483818085885628, 0.23715809467554239, 0.09797079716785113, 0.21342753493668973, -0.057595781416281695, -0.020171287813059647, 0.1136903806823652, 0.13652139780246086, 0.05054111181948824, -0.012064222958493985, 0.010702429770472296, 0.0001911557066364766, 0.0007808402801571376, -0.0290321807905215, 0.0020503348703974017, 0.001651911920499232, -0.05586905052993595, -0.07988601053774355, -0.28625765005934833, -0.35498714755074107, -0.4379238736975448, -0.05017118755063517, -0.008812806452183087, 0.2535293119059271, 0.21179152425565934, 0.2808955767993946, 0.2470500526512719, 0.2701822075366205, 0.35939202199872256, -0.12150332324607571, 0.013850173237541829, 0.22270367628924562, -0.006053251972907012, -0.015304214092442378, 0.1234966153093801, 0.12922554070700285, 0.02117885912845365, 0.004386322368904695, -0.0035383917443748735, -0.0027834779952441674, 0.0014771233223567143, 0.0007831476949360267, 0.004946672025471102, -0.10658597951356695, -0.07776555117613856, -0.30285938200771617, -0.29579343968780686, -0.23932402682925177, 0.12975776110227133, 0.26392939138891464, 0.05206898411430542, 0.1175317157854494, 0.05327178605753855, 0.07815945586169505, 0.17692458797150615, 0.010786983919047642, 0.4643912171722839, 0.26846522750290747, 0.1422426253139522, 0.27467347283482707, 0.13025695087456307, 0.20439284553411752, 0.1498535944309817, 0.008671313580106506, -0.00550074051480788, 0.0025149239492865266, -0.0006883120354469926, -0.003888039837013035, -0.003051747511685364, -0.0031180061217805266, -0.021779462029331648, -0.06255224575484138, -0.10062849165623587, -0.1610992389626459, -0.24954870934966086, -0.35888056859030065, -0.17965374090578934, -0.08541780912016134, 0.12494514993832567, 0.21795679128214426, 0.276354702844522, 0.12118910285638937, 0.0015688353523956125, -0.05958092830254789, 0.05598070032499484, 0.22639591118177416, 0.07000514745893019, 0.056658556939174806, 0.055908329284612396, 0.07948466667659218, 0.05853055476927189, 0.0164433661044005, 0.000535472406566388, -0.0006027172742534237, -0.0031620843028151505, 0.0010208831252302595, 0.0010637304544481906, 0.013423645544338761, 0.004256653418953105, 0.0011495421755996732, 0.015876616875170835, 0.022135278600740403, 0.019018512289604748, 0.05277222061301358, 0.1092045418134011, -0.014504938863178527, -0.03508155759922351, -0.0662879768479764, -0.07958669054681952, 0.053735746080013226, 0.09131952492935476, 0.03969829211679995, 0.05794231633033192, 0.10248869639509962, 0.08194697259852392, 0.0914707002841679, 0.060154856552437595, 0.0240110663126885, 0.00600636432927013, -0.0032676454279236444, 0.01670507647006765, -0.002161461861432713, 0.008490310593284488, 0.0067891296367843705, -0.009666696623362272, -0.006870869306264052, 0.0034248524550208404, 0.015556158418845048, 0.01646193411651068, 0.006581994891186522, 0.0010511137089007888, 0.0024282475153717758, 0.0056575702586255175, 0.007128157083576151, 0.007829162122981452, 0.008759905565293045, 0.01275192687156034, 0.025171261799151846, 0.01280040256726251, 0.010787115814613288, 0.011588994218039191, 0.023330449593470068, 0.02655618436903687, 0.047163578286778425, 0.023089404802028583, 0.017485569835052808, -0.0012957135559265335, -0.0006194696511646942, 0.016044568712040054, -0.015417245865391456, 0.012786065374970904], [-0.0029403084916253814, 0.0035398393938200004, -0.01701962339316863, -0.00019221150793864204, -0.0036542775746568074, 0.008455944097093594, -0.001970998343444623, -0.00466067955862028, -0.014535903142013631, -0.01189200597708766, -0.006527397050130671, -0.0016155791646328308, -0.009593985354875965, 0.006803229311546124, -0.003276860267163893, -0.006128080202454792, -0.002939494709053675, -0.001870590203960491, -0.0011993039795801016, -0.011986122075833225, 0.006856719634475553, -0.001274000374212722, -0.004933384628317614, -0.008416213431655098, -0.0014833393418370881, -0.009920983079514023, 0.003199260057651743, -0.0016613727534464944, -0.0054188890737544276, -0.004632169561874233, -0.0017693885472017847, -0.005200809536242857, -0.006572882814690054, -0.005190499517582288, -0.007440333661573045, -0.024668276231925985, -0.0046526060403449246, -0.004070111836110957, -0.020089964026106095, -0.027904737779497535, -0.019979165029597543, -0.018183593038403674, -0.00021839022488224832, -0.024509132432700247, 0.007564891926478596, 0.0017314697670839825, -0.014339037519148652, 0.00030123614060447373, -0.013574492664230355, 0.006147456510186937, -0.011341348035680258, 0.003801852811064161, 0.001060716326698236, -0.004623855522627692, -0.002916593957665099, -0.002305023052629954, -0.0005712955929919358, -0.01346506208244392, -0.00365984802071183, -0.0038864627239408524, -0.0006039908663013008, 0.0007978768999859301, -0.04767561563957143, -0.06375409150450086, -0.0650396514144377, -0.10063631897922197, -0.0896353045805859, -0.08326738811097717, -0.18545004699719245, -0.18733759766494534, -0.14700408837268344, -0.09068323397094767, -0.06515162028427587, -0.03189456910579565, 0.0022464508699875938, 0.013823101289858638, 0.01622829374687971, 0.007187044789159755, 0.0034626960502689283, -0.01171818232730416, -0.012846600655511546, 0.000804081599969307, 0.0005476362675613859, -0.012702083201185281, -0.008205934803996173, 0.0007577909642758054, -0.012786488347943603, 0.006920349460274578, -0.012233899743919526, 0.024294885539973297, -0.05508705147689466, -0.040331800064216376, -0.058766666883206586, -0.22065831299932356, -0.1695637564272176, -0.16869972212822668, -0.32779740435197946, -0.42675324734845826, -0.12044007288754893, 0.25273249572633927, 0.3065021823955469, 0.45990559255602376, 0.46426714202775105, 0.22949854241040607, 0.2020400366482513, 0.06791780875367809, 0.03524878934353295, -0.0035698227775691677, -0.006764375171309966, -0.003166849500133796, 0.00028409592668761645, 0.005300642781806313, 0.002616287873308239, 0.0173515708245493, -0.006789141805651281, 0.004964327644741208, 0.022647523996712243, 0.06644570983885849, 0.0363667755739434, -0.05121947437962934, -0.08101465284823947, -0.057890516437552324, 0.022428378545798176, 0.1852725962290437, 0.10682565510034847, 0.06820792103159835, -0.14651479480313498, -0.17731839536574995, 0.085343471530624, 0.16332735224005512, 0.3242429495191873, 0.20209555141081834, 0.13337483676357756, 0.22604469236363794, 0.23273954453386325, 0.0950733914170366, 0.01587932409168002, 0.005228161468563865, -0.0007767501957660822, -0.0032307093086779495, 0.00024808329949421715, 0.014118497997771415, 0.0004393248454630611, 0.06367969855786336, 0.056634425527676016, 0.08289926217177696, 0.10033496217449887, 0.0009490169019044672, 0.03296324641550919, -0.12311939731174394, 0.0315337960638427, 0.3233698689419498, 0.04842062639995803, 0.04441618433903445, -0.08596341830973427, 0.043453621102127846, 0.010100689358953913, 0.293613419226366, 0.6042355881908085, 0.3156629988849286, 0.14324632423594363, 0.0133572468720811, 0.16431470988466593, 0.10649388921530804, 0.030686298271335535, 0.05430788045466546, 0.01157713785960726, -0.0032049678638865465, 0.0014911708140127088, -0.006845188207704298, 0.0017429395326193902, 0.07841465286862404, 0.04490900490756982, -0.02452541753114767, -0.0850706076995617, -0.1074883042307656, -0.04742134773942573, -0.13486533645969023, -0.05364162226193634, -0.10622503675718671, 0.019851954474916843, 0.4044202784047237, 0.2799903132949558, 0.6002017026643648, 0.608207475674766, 0.20775121934009325, 0.1566234940052365, -0.042791072436947436, 0.15586098868455642, 0.19391276804644497, 0.1918200538087055, 0.06717626506945683, -0.008857109553764614, -0.026369365872018265, -0.041090641006309214, -0.002630754059873455, -0.005568128735190159, -0.010818571821485393, -0.011599720630406698, -0.00037389004000131534, -0.06886004943924762, -0.01640017807705875, 0.04864130329894227, -0.11575702930485532, -0.17330727301154625, -0.3083730314962248, -0.21652706564176602, 0.13910468184422423, 0.13852617964747205, 0.19658424378060244, 0.3928642988036011, 0.467168498489879, 0.49027225432637156, 0.23540594144225369, 0.017329337316816403, 0.1926205926044235, 0.19466332299171654, -0.04782146966162365, -0.124340889012505, -0.006768923750791375, 0.04241892199341282, -0.017221919470689937, -0.044646336657237475, -0.0043455137785591595, -0.009302754359311653, 0.005248260933133845, 0.005206315849395266, -0.02291582178792935, -0.07862795745851861, 0.08939995154246237, 0.09365013711255178, -0.1732462800773346, -0.2521649318126011, -0.08631991074387138, -0.18079604749576986, -0.14332579993415132, -0.21680539806095075, 0.3461027421796271, 0.20842462052157534, 0.1221199700695137, 0.6090432860512258, 0.178474843247915, 0.04143687451522796, 0.1761749026290527, 0.033670673219200475, 0.23881374071317155, -0.03634555039314395, -0.1672550482267955, -0.033067541070314364, -0.015132844098919363, -0.02641671465617853, 0.017664945108016316, -0.0065932355086418, 0.0018536746292987345, -0.012027398119638459, -0.0022209052614995733, -0.09405822945311602, -0.08845606005745432, 0.001224672621894712, -0.09961772944635539, -0.2742906191523179, -0.22799688406709862, -0.09021324378355379, -0.2700370802995083, -0.04879785639399271, 0.19685933285217952, 0.02260823196933964, -0.03828117183698738, -0.2844374536195828, -0.23621342990593483, -0.09727468788403473, 0.10874267033842053, 0.0911876607566012, -0.10792500755679096, -0.16208479621947022, -0.3390720998838589, -0.16865877434651855, -0.13799104310447177, -0.08440750525407954, -0.013158715450089533, 0.0015676342802871475, -0.01586975180324365, -0.011054802967459875, 0.08067985274854453, -0.13284626628668747, -0.10861806164290891, 0.07986574323755707, -0.02957620358775857, 0.023701394439715726, -0.021428972326255673, -0.25479209667945313, -0.0742881741095055, -0.05455063159880541, -0.2835249803159372, 0.1714711210201324, -0.38878304731783797, -0.030362579968479388, -0.3848922217460518, -0.419192982718286, -0.2690801001977391, -0.2810594783321597, -0.36808270198728993, -0.0605730707695509, -0.26653356219751917, -0.2677401564890135, -0.1369555023964259, -0.04208404190474797, 0.023401587041722946, -0.0074054365866050515, -0.0027170361060997856, -0.01887620727965664, 0.04431036986454668, -0.17314487779259471, -0.09450664350205006, 0.11984980482325899, -0.09494415717560736, 0.170564602280776, -0.25016944902228344, -0.21914176312192285, -0.21723245085254386, 0.09219415671236517, 0.09939633170416246, 0.17340309260895476, 0.07597924306917604, 0.04089487935428391, 0.2910816896575195, 0.09975091861906499, 0.05659824524964366, -0.1809233889547842, -0.24831501310613951, -0.06455318044362866, -0.1613223067763563, -0.10539106431781331, -0.10267624625995823, -0.0007455937098887349, -0.016945729770830455, -0.02066054265222552, -0.0038580269054086834, -0.008903340123612487, 0.007907458154220157, -0.08742102671762066, 0.11087014451489566, 0.1309089861518788, -0.20227761059935637, -0.18910642286117677, -0.17059411871868813, 0.2904992962181354, 0.30714163778642356, 0.3258251997330375, 0.4756038559157101, 0.20065310855954796, 0.14364302796827585, 0.3764028557202534, 0.6616416014959111, 0.18292720108448526, 0.21419834456069267, 0.02121123094886976, -0.11742026960016302, -0.01903862319306932, 0.04960577756053171, -0.13160746240491591, -0.17915551967951707, -0.03834577333344582, -0.020305527921836566, -0.002031903379112431, -0.008262012423810224, -0.012128099741537158, 0.05847776134925055, 0.17005599803763502, 0.14324452707203927, 0.22045194722919842, 0.29170431872668234, 0.27735877399869047, 0.060797200274549816, 0.37755598517461697, 0.42656196355935394, 0.2982271177016737, 0.3073494585751278, 0.26403976257893363, 0.27987291324189123, 0.14001796495237728, 0.24245383130584947, 0.3350720258545356, -0.14439018056435263, -0.20690456342287217, 0.03654976458522148, 0.10551492963074713, -0.08683193396790535, -0.16400119119900747, -0.12690772554781432, -0.04252175571983563, -0.02352455128919789, -0.011119423786366437, 0.008085854314102662, -0.009186660276791537, 0.09266845142839691, 0.39883642589435164, 0.27510300138087623, 0.32422574313182423, 0.4001302156513277, 0.4302561879736921, 0.5636536774167036, 0.5261571240000739, 0.19583292598137664, 0.2445522856849074, 0.05513761659801694, -0.12766516232382888, 0.11201777004434549, 0.13992038600975962, -0.04591854658410789, 0.07546444886500402, -0.23861489560552493, 0.022566403556158306, 0.15381343308763876, -0.19905962224442994, -0.2226225121364258, -0.15306341009565436, -0.05098406607420362, -0.038149812174274274, -0.010563852246740278, -0.0010318330458616843, 0.03175075222685764, -0.008131003829601233, 0.08387710779959147, 0.4209785664650927, 0.5537915364773488, 0.18553851892760245, 0.38804055454487724, 0.5680893448038647, 0.6935304546961218, 0.6008652679542873, 0.049410690870700186, -0.18189091541903743, -0.2629751249009521, -0.3157035536830557, 0.15481864743134194, 0.07488991394225317, 0.3110579610475014, 0.24789248068951383, 0.08779185311622129, 0.3786533588194729, 0.2688503282427022, -0.1234346648146059, -0.07247856611993404, -0.08759920748837911, -0.07809137862599844, -0.006333238667161627, -0.007463719646765815, -0.0009281433959870229, 0.008965590989805334, 0.0071997861670882665, 0.10330612921699502, 0.34897400450875043, 0.5648940320649121, 0.3620658244237778, 0.6490570027252297, 0.7235618615432564, 0.4406620183274116, 0.06762211617413878, -0.0987402387364905, -0.36485752147672657, -0.4523412292644121, -0.22057672509962084, 0.0021915720423022916, -0.16040802236272358, 0.25982577590274714, 0.2379489716150806, 0.26895519357797143, 0.5870782438482555, 0.19027354800831878, 0.1347280769261569, 0.05735444532982611, 0.05278360928810261, -0.07693735795741359, -0.043736652028556075, -0.00546791172452822, -0.009027888979305345, 0.001958852450820332, 0.019816041468008326, 0.12801581092790137, 0.24972957163397896, 0.3183403911028697, 0.31957084849238415, 0.6427024230362143, 0.545363078018411, 0.3775535146456778, -0.10427011544093864, -0.21571924492668468, -0.35673989549633506, -0.39461415916034526, -0.14380754778299745, 0.05364391919658902, -0.12280595489326031, 0.0817408390332007, -0.1455235866562647, 0.2555136101137879, 0.2897720363586506, 0.1343116538469046, 0.17656374778093017, -0.02331589708143018, -0.0644760070415009, -0.1698971196234903, -0.04066586108001919, 0.0008202207174582933, 0.00968100401531824, -0.005028250810786644, 0.007338984557971769, 0.0738971048642585, 0.1605268702914937, 0.22157075387643815, 0.27407927972757223, 0.03642135784316714, 0.22698433285118902, -0.030190531621440527, -0.038849145760243724, -0.1274309176524357, -0.4907564585169253, -0.46174895193855364, -0.5521802055028662, -0.12810325752903096, 0.15491540234628987, 0.2356245760814803, -0.06398588917020631, 0.11163155151466699, -0.03678645827930838, -0.04498005966190787, 0.2506718669094385, 0.0043934354575979875, -0.12218028771306981, -0.12852111936147464, -0.043167565471905894, -0.022508610574294746, 0.010577134819456616, -0.007244680524237787, -0.019098355677212322, 0.016257685766185852, 0.08572512825314982, 0.31769160386979467, 0.07035984238324922, 0.15779127626757003, 0.313367743146192, -0.1648161647967041, 0.21392059369935093, -0.4159872623825981, -0.11499807300182142, -0.7109360099910302, -0.4377691651051663, -0.3873428966854887, -0.01731120078824255, -0.12653203030119514, 0.11738379365477951, 0.1439259013479096, -0.11279599560724765, -0.05433624838857072, 0.26882485067812506, 0.06785009494119754, -0.03231786568815627, -0.07979349307071644, -0.028237507051956337, -0.0035495865372378674, 0.010246707275385599, -0.010191559383270153, 0.012076326742210321, 0.02118916951956437, 0.14903918319781306, 0.12494400518293877, -0.12947276806909158, -0.0536032201973622, -0.06928882368167733, -0.0653508296109558, -0.15874905417935734, -0.1870419767797923, -0.07868117235041476, -0.11067560835955922, -0.1984385188353473, -0.33209452895749497, -0.21829470952094926, -0.10588808450066946, -0.10065444201096829, -0.05579604863433243, -0.03181462461146423, 0.11346290481865318, 0.24027932753408948, 0.02777558654258078, 0.015124593079986369, 0.03566516097585132, -0.026342473938860637, 0.0016469656642745544, -4.8517179938352606e-05, -0.004150266109212368, 0.025382816616732726, 0.03373575808958682, 0.11056010708820935, -0.02409837882159497, -0.243871598036847, 0.060637466713813155, -0.09702145949862093, -0.18784391035708978, -0.06727326167042945, -0.18954208356148147, -0.055954774130464645, -0.0688746051374775, -0.33529868929486173, -0.127380858424092, 0.13506648906251817, -0.3372796712852829, -0.1678707121203982, -0.13125251426260537, -0.09882678053562645, -0.03491028617390328, 0.14036602782850952, -0.056733444423258485, -0.07684489057942095, -0.004245355201038173, -0.0022125428448011015, -0.0035684473482828142, -0.002543239886238234, 0.0058181793580178495, 0.023166500657817092, -0.0020574500145948086, -0.004733505429128063, -0.30696544916198454, -0.23031114210358516, 0.05700334477633989, -0.019156422072182707, -0.05466280946731569, 0.09157475920503826, 0.008014454318763473, -0.2435218758534295, 0.05269729720291833, -0.1740121969602274, -0.01562995319826121, -0.05507280394650022, -0.14248472514955335, -0.03905707162998159, -0.0776024654659155, 0.03976097833739845, 0.019447364220227227, 0.19991736161965254, 0.1511183081767232, 0.01435782108367941, -0.01169355964653213, -0.010036522376115459, -0.00042876605493056224, 0.003349172995720118, 0.003909437343622151, 0.017978671506984824, 0.11259342758540719, 0.007971696948991601, -0.09359243004011925, -0.18142362456620442, -0.125892205717389, 0.04239390846426221, -0.2957410128252225, 0.07180919770727463, -0.03321956782653898, -0.25482108877065507, 0.006717875037038464, -0.12063636528834182, -0.07012176437954697, -0.2931793366135177, -0.12030680864192952, -0.02999379191709541, -0.17164584241186437, 0.2000527662699606, 0.017132240955033903, 0.052396303598049, 0.020407572202474727, 0.05286810180361878, -0.0028855118532595918, -0.02720001691108354, -0.007338669341663836, -0.009077993533593998, 0.0121557152764852, -0.004529704778045509, 0.08772197396207877, 0.06169503891265269, 0.06066196174733528, 